{"learner":{"attributes":{"scikit_learn":"{\"_estimator_type\": \"classifier\"}"},"feature_names":["Gender","Age","Night Sleep Pain","Hard Manual Labour Pain"],"feature_types":["int","int","int","int"],"gradient_booster":{"model":{"gbtree_model_param":{"num_parallel_tree":"1","num_trees":"300"},"iteration_indptr":[0,1,2,3,4,5,6,7,8,9,10,11,12,13,14,15,16,17,18,19,20,21,22,23,24,25,26,27,28,29,30,31,32,33,34,35,36,37,38,39,40,41,42,43,44,45,46,47,48,49,50,51,52,53,54,55,56,57,58,59,60,61,62,63,64,65,66,67,68,69,70,71,72,73,74,75,76,77,78,79,80,81,82,83,84,85,86,87,88,89,90,91,92,93,94,95,96,97,98,99,100,101,102,103,104,105,106,107,108,109,110,111,112,113,114,115,116,117,118,119,120,121,122,123,124,125,126,127,128,129,130,131,132,133,134,135,136,137,138,139,140,141,142,143,144,145,146,147,148,149,150,151,152,153,154,155,156,157,158,159,160,161,162,163,164,165,166,167,168,169,170,171,172,173,174,175,176,177,178,179,180,181,182,183,184,185,186,187,188,189,190,191,192,193,194,195,196,197,198,199,200,201,202,203,204,205,206,207,208,209,210,211,212,213,214,215,216,217,218,219,220,221,222,223,224,225,226,227,228,229,230,231,232,233,234,235,236,237,238,239,240,241,242,243,244,245,246,247,248,249,250,251,252,253,254,255,256,257,258,259,260,261,262,263,264,265,266,267,268,269,270,271,272,273,274,275,276,277,278,279,280,281,282,283,284,285,286,287,288,289,290,291,292,293,294,295,296,297,298,299,300],"tree_info":[0,0,0,0,0,0,0,0,0,0,0,0,0,0,0,0,0,0,0,0,0,0,0,0,0,0,0,0,0,0,0,0,0,0,0,0,0,0,0,0,0,0,0,0,0,0,0,0,0,0,0,0,0,0,0,0,0,0,0,0,0,0,0,0,0,0,0,0,0,0,0,0,0,0,0,0,0,0,0,0,0,0,0,0,0,0,0,0,0,0,0,0,0,0,0,0,0,0,0,0,0,0,0,0,0,0,0,0,0,0,0,0,0,0,0,0,0,0,0,0,0,0,0,0,0,0,0,0,0,0,0,0,0,0,0,0,0,0,0,0,0,0,0,0,0,0,0,0,0,0,0,0,0,0,0,0,0,0,0,0,0,0,0,0,0,0,0,0,0,0,0,0,0,0,0,0,0,0,0,0,0,0,0,0,0,0,0,0,0,0,0,0,0,0,0,0,0,0,0,0,0,0,0,0,0,0,0,0,0,0,0,0,0,0,0,0,0,0,0,0,0,0,0,0,0,0,0,0,0,0,0,0,0,0,0,0,0,0,0,0,0,0,0,0,0,0,0,0,0,0,0,0,0,0,0,0,0,0,0,0,0,0,0,0,0,0,0,0,0,0,0,0,0,0,0,0,0,0,0,0,0,0,0,0,0,0,0,0,0,0,0,0,0,0,0,0,0,0,0,0],"trees":[{"base_weights":[6.241845E-1,7.071176E-1,2.1557494E-1,6.056275E-3,8.462838E-3,3.4611495E-3,-1.4932188E-1,-3.911328E-3,2.7583162E-3],"categories":[],"categories_nodes":[],"categories_segments":[],"categories_sizes":[],"default_left":[0,0,0,0,0,0,0,0,0],"id":0,"left_children":[1,3,5,-1,-1,-1,7,-1,-1],"loss_changes":[1.5216415E1,3.2470703E-2,5.428599E0,0E0,0E0,0E0,4.488221E0,0E0,0E0],"parents":[2147483647,0,0,1,1,2,2,6,6],"right_children":[2,4,6,-1,-1,-1,8,-1,-1],"split_conditions":[1E0,1E0,1E0,6.056275E-3,8.462838E-3,3.4611495E-3,1E0,-3.911328E-3,2.7583162E-3],"split_indices":[3,2,0,0,0,0,2,0,0],"split_type":[0,0,0,0,0,0,0,0,0],"sum_hessian":[4.9762848E2,4.0657852E2,9.104996E1,2.6814148E2,1.3843703E2,6.8448E1,2.2601965E1,1.5667271E1,6.934694E0],"tree_param":{"num_deleted":"0","num_feature":"4","num_nodes":"9","size_leaf_vector":"1"}},{"base_weights":[6.20434E-1,1.3399951E-1,7.954608E-1,-2.327876E-1,5.692016E-1,8.0196404E-1,-6.000221E-4,-3.8194242E-1,3.3139635E-3,6.1728475E-3,-5.4124496E-3,5.4212557E-3,8.847219E-3,1.06083885E-1,-6.186788E-1,-1.1803696E-3,7.5044914E-4,-1.8132256E-3,2.6821888E-3,-8.349544E-3,-0E0],"categories":[],"categories_nodes":[],"categories_segments":[],"categories_sizes":[],"default_left":[0,0,0,0,0,0,0,0,0,0,0,0,0,0,0,0,0,0,0,0,0],"id":1,"left_children":[1,3,5,7,9,11,-1,13,-1,-1,15,-1,-1,17,19,-1,-1,-1,-1,-1,-1],"loss_changes":[4.1936676E1,2.5098034E1,2.9254456E0,8.588473E0,2.3053436E0,2.471054E0,0E0,9.454374E0,0E0,0E0,2.4241635E-1,0E0,0E0,2.0207558E0,6.891447E0,0E0,0E0,0E0,0E0,0E0,0E0],"parents":[2147483647,0,0,1,1,2,2,3,3,4,4,5,5,7,7,10,10,13,13,14,14],"right_children":[2,4,6,8,10,12,-1,14,-1,-1,16,-1,-1,18,20,-1,-1,-1,-1,-1,-1],"split_conditions":[5E1,1E0,8.7E1,4.8E1,4.9E1,5.7E1,-6.000221E-4,3.2E1,3.3139635E-3,6.1728475E-3,1E0,5.4212557E-3,8.847219E-3,2.6E1,1E0,-1.1803696E-3,7.5044914E-4,-1.8132256E-3,2.6821888E-3,-8.349544E-3,-0E0],"split_indices":[1,0,1,1,1,1,0,1,0,0,2,0,0,1,2,0,0,0,0,0,0],"split_type":[0,0,0,0,0,0,0,0,0,0,0,0,0,0,0,0,0,0,0,0,0],"sum_hessian":[5.0054507E2,1.3787515E2,3.6266992E2,7.671886E1,6.1156292E1,3.6113443E2,1.5354847E0,6.393311E1,1.278575E1,5.6551643E1,4.6046453E0,1.0693506E2,2.5419937E2,2.1995916E1,4.193719E1,2.56203E0,2.0426152E0,6.3941426E0,1.5601774E1,2.8400843E1,1.3536349E1],"tree_param":{"num_deleted":"0","num_feature":"4","num_nodes":"21","size_leaf_vector":"1"}},{"base_weights":[6.360665E-1,1.7884107E-1,8.216714E-1,3.3539152E-1,-4.5238927E-1,8.309762E-3,-9.041974E-4,2.3101845E-1,4.5279804E-1,2.7110586E-2,-6.564372E-3,1.3728963E-1,3.7427945E-3,-0E0,4.8888716E-1,-4.2961936E-2,9.969585E-4,2.4500699E-3,-2.9089167E-3,7.4855855E-4,-1.0338436E-3,5.1521147E-3,-0E0,7.6104776E-4,-1.7639436E-3],"categories":[],"categories_nodes":[],"categories_segments":[],"categories_sizes":[],"default_left":[0,0,0,0,0,0,0,0,0,0,0,0,0,0,0,0,0,0,0,0,0,0,0,0,0],"id":2,"left_children":[1,3,5,7,9,-1,-1,11,13,15,-1,17,-1,19,21,23,-1,-1,-1,-1,-1,-1,-1,-1,-1],"loss_changes":[4.0650665E1,1.7128326E1,4.1230774E0,2.4715233E-1,3.930152E0,0E0,0E0,4.8328876E-1,9.4179535E-1,1.696667E-1,0E0,4.117049E0,0E0,1.8660098E-1,5.317421E-1,3.9623097E-1,0E0,0E0,0E0,0E0,0E0,0E0,0E0,0E0,0E0],"parents":[2147483647,0,0,1,1,2,2,3,3,4,4,7,7,8,8,9,9,11,11,13,13,14,14,15,15],"right_children":[2,4,6,8,10,-1,-1,12,14,16,-1,18,-1,20,22,24,-1,-1,-1,-1,-1,-1,-1,-1,-1],"split_conditions":[5.1E1,1E0,8.7E1,1E0,3.6E1,8.309762E-3,-9.041974E-4,4.8E1,2.8E1,3.1E1,-6.564372E-3,4.4E1,3.7427945E-3,2.5E1,5E1,2.4E1,9.969585E-4,2.4500699E-3,-2.9089167E-3,7.4855855E-4,-1.0338436E-3,5.1521147E-3,-0E0,7.6104776E-4,-1.7639436E-3],"split_indices":[1,3,1,2,1,0,0,1,1,1,0,1,0,1,1,1,0,0,0,0,0,0,0,0,0],"split_type":[0,0,0,0,0,0,0,0,0,0,0,0,0,0,0,0,0,0,0,0,0,0,0,0,0],"sum_hessian":[4.922244E2,1.4856755E2,3.4365686E2,1.2343374E2,2.5133804E1,3.416094E2,2.047459E0,8.330873E1,4.0125008E1,9.359806E0,1.5773998E1,6.430824E1,1.9000492E1,3.1868122E0,3.6938194E1,3.333974E0,6.025832E0,5.5733166E1,8.575075E0,2.04093E0,1.145882E0,3.4267418E1,2.670775E0,2.0520334E0,1.2819405E0],"tree_param":{"num_deleted":"0","num_feature":"4","num_nodes":"25","size_leaf_vector":"1"}},{"base_weights":[6.4156103E-1,7.148598E-3,2.7734703E-1,4.2122253E-3,-1.2035116E-1,-3.6571368E-3,3.234734E-3],"categories":[],"categories_nodes":[],"categories_segments":[],"categories_sizes":[],"default_left":[0,0,0,0,0,0,0],"id":3,"left_children":[1,-1,3,-1,5,-1,-1],"loss_changes":[1.1094101E1,0E0,6.531453E0,0E0,4.920489E0,0E0,0E0],"parents":[2147483647,0,0,2,2,4,4],"right_children":[2,-1,4,-1,6,-1,-1],"split_conditions":[1E0,7.148598E-3,1E0,4.2122253E-3,1E0,-3.6571368E-3,3.234734E-3],"split_indices":[3,0,0,0,2,0,0],"split_type":[0,0,0,0,0,0,0],"sum_hessian":[4.9841513E2,4.0575574E2,9.26594E1,6.853219E1,2.4127207E1,1.7396374E1,6.730833E0],"tree_param":{"num_deleted":"0","num_feature":"4","num_nodes":"7","size_leaf_vector":"1"}},{"base_weights":[6.28115E-1,7.018514E-3,2.4968792E-1,4.2816517E-3,-1.9003832E-1,-3.3599972E-3,1.7989735E-3],"categories":[],"categories_nodes":[],"categories_segments":[],"categories_sizes":[],"default_left":[0,0,0,0,0,0,0],"id":4,"left_children":[1,-1,3,-1,5,-1,-1],"loss_changes":[1.1790695E1,0E0,8.667577E0,0E0,2.5492E0,0E0,0E0],"parents":[2147483647,0,0,2,2,4,4],"right_children":[2,-1,4,-1,6,-1,-1],"split_conditions":[1E0,7.018514E-3,1E0,4.2816517E-3,1E0,-3.3599972E-3,1.7989735E-3],"split_indices":[3,0,0,0,2,0,0],"split_type":[0,0,0,0,0,0,0],"sum_hessian":[4.9240012E2,4.038435E2,8.855662E1,6.3985855E1,2.457076E1,1.924601E1,5.3247504E0],"tree_param":{"num_deleted":"0","num_feature":"4","num_nodes":"7","size_leaf_vector":"1"}},{"base_weights":[5.850549E-1,8.50888E-2,7.3608935E-1,2.1484087E-1,-4.112581E-1,8.0482674E-1,3.5444888E-1,5.451275E-2,4.3933364E-3,2.7307019E-2,-6.8995603E-3,5.2179806E-3,8.6513364E-1,-1.6155878E-1,4.267892E-1,2.7999708E-3,-9.2250675E-2,-9.023516E-4,1.17652535E-1,8.676595E-3,-0E0,-0E0,-2.0696158E-3,4.814627E-1,-1.4828775E-3,-4.5119086E-3,6.3019374E-4,1.5796686E-3,-0E0,1.6668233E-3,5.756038E-3],"categories":[],"categories_nodes":[],"categories_segments":[],"categories_sizes":[],"default_left":[0,0,0,0,0,0,0,0,0,0,0,0,0,0,0,0,0,0,0,0,0,0,0,0,0,0,0,0,0,0,0],"id":5,"left_children":[1,3,5,7,9,11,13,15,-1,17,-1,-1,19,21,23,-1,25,-1,27,-1,-1,-1,-1,29,-1,-1,-1,-1,-1,-1,-1],"loss_changes":[3.6631012E1,9.016324E0,6.563156E0,3.4255004E0,4.0788956E0,1.499939E-1,3.7013712E0,2.8712184E0,0E0,3.347744E-1,0E0,0E0,1.06903076E-1,1.5070188E-1,3.1205883E0,0E0,3.3925536E0,0E0,1.2215513E-1,0E0,0E0,0E0,0E0,6.9070053E-1,0E0,0E0,0E0,0E0,0E0,0E0,0E0],"parents":[2147483647,0,0,1,1,2,2,3,3,4,4,5,5,6,6,7,7,9,9,12,12,13,13,14,14,16,16,18,18,23,23],"right_children":[2,4,6,8,10,12,14,16,-1,18,-1,-1,20,22,24,-1,26,-1,28,-1,-1,-1,-1,30,-1,-1,-1,-1,-1,-1,-1],"split_conditions":[4.8E1,1E0,1E0,1E0,3.6E1,5.5E1,5.1E1,3.3E1,4.3933364E-3,2.6E1,-6.8995603E-3,5.2179806E-3,8.7E1,4.9E1,7.5E1,2.7999708E-3,3.6E1,-9.023516E-4,3.4E1,8.676595E-3,-0E0,-0E0,-2.0696158E-3,5.7E1,-1.4828775E-3,-4.5119086E-3,6.3019374E-4,1.5796686E-3,-0E0,1.6668233E-3,5.756038E-3],"split_indices":[1,3,3,2,1,1,1,1,0,1,0,0,1,1,1,0,1,0,1,0,0,0,0,1,0,0,0,0,0,0,0],"split_type":[0,0,0,0,0,0,0,0,0,0,0,0,0,0,0,0,0,0,0,0,0,0,0,0,0,0,0,0,0,0,0],"sum_hessian":[4.8883337E2,1.1780623E2,3.7102716E2,9.868698E1,1.9119247E1,3.0389395E2,6.71332E1,6.612055E1,3.256643E1,1.0236696E1,8.882551E0,7.178969E1,2.3210426E2,5.8881006E0,6.12451E1,2.3832895E1,4.2287655E1,2.0489104E0,8.187786E0,2.308387E2,1.2655641E0,2.6880038E0,3.2000968E0,5.8208435E1,3.0366638E0,7.986612E0,3.4301044E1,4.9843574E0,3.2034283E0,2.1001686E1,3.720675E1],"tree_param":{"num_deleted":"0","num_feature":"4","num_nodes":"31","size_leaf_vector":"1"}},{"base_weights":[6.0489434E-1,1.6337222E-1,7.668779E-1,2.705256E-1,-2.4813549E-1,7.7223782E-3,-0E0,1.3513921E-1,4.5971107E-1,1.659817E-1,-5.651103E-1,-1.0332924E-3,1.1150246E-3,2.2898392E-1,-5.3151015E-2,3.0928047E-3,4.7978396E-3,-5.109672E-4,2.44542E-3,-6.7869574E-1,-2.867008E-2,3.0468404E-3,8.8414375E-4,-2.0392523E-3,7.2977913E-4,3.593868E-4,-0E0,-7.178631E-3,-0E0,1.411682E-4,-1.0140112E-3],"categories":[],"categories_nodes":[],"categories_segments":[],"categories_sizes":[],"default_left":[0,0,0,0,0,0,0,0,0,0,0,0,0,0,0,0,0,0,0,0,0,0,0,0,0,0,0,0,0,0,0],"id":6,"left_children":[1,3,5,7,9,-1,11,13,15,17,19,-1,-1,21,23,25,-1,-1,-1,27,29,-1,-1,-1,-1,-1,-1,-1,-1,-1,-1],"loss_changes":[3.3748E1,7.1482835E0,1.3742676E0,2.2084198E0,5.6722407E0,0E0,2.6222214E-1,1.7445722E0,1.5821457E-1,5.9726274E-1,8.240676E-1,0E0,0E0,1.8987131E-1,8.84415E-1,1.49032725E-2,0E0,0E0,0E0,2.2204208E-1,1.0508963E-1,0E0,0E0,0E0,0E0,0E0,0E0,0E0,0E0,0E0,0E0],"parents":[2147483647,0,0,1,1,2,2,3,3,4,4,6,6,7,7,8,8,9,9,10,10,13,13,14,14,15,15,19,19,20,20],"right_children":[2,4,6,8,10,-1,12,14,16,18,20,-1,-1,22,24,26,-1,-1,-1,28,30,-1,-1,-1,-1,-1,-1,-1,-1,-1,-1],"split_conditions":[5E1,1E0,8.6E1,1E0,3.6E1,7.7223782E-3,9.1E1,4.2E1,2.7E1,2.6E1,4.6E1,-1.0332924E-3,1.1150246E-3,3.3E1,4.6E1,2.4E1,4.7978396E-3,-5.109672E-4,2.44542E-3,1E0,4.9E1,3.0468404E-3,8.8414375E-4,-2.0392523E-3,7.2977913E-4,3.593868E-4,-0E0,-7.178631E-3,-0E0,1.411682E-4,-1.0140112E-3],"split_indices":[1,3,1,2,1,0,1,1,1,1,1,0,0,1,1,1,0,0,0,2,1,0,0,0,0,0,0,0,0,0,0],"split_type":[0,0,0,0,0,0,0,0,0,0,0,0,0,0,0,0,0,0,0,0,0,0,0,0,0,0,0,0,0,0,0],"sum_hessian":[4.8589404E2,1.3663568E2,3.4925836E2,1.1208949E2,2.4546192E1,3.4659302E2,2.6653318E0,7.686727E1,3.522223E1,1.2023735E1,1.2522457E1,1.1462697E0,1.5190622E0,5.162926E1,2.5238007E1,3.01803E0,3.2204197E1,2.43278E0,9.590956E0,7.376624E0,5.145833E0,2.36573E1,2.797196E1,1.0492043E1,1.4745964E1,1.6351244E0,1.3829054E0,5.9630547E0,1.4135698E0,3.9855626E0,1.1602702E0],"tree_param":{"num_deleted":"0","num_feature":"4","num_nodes":"31","size_leaf_vector":"1"}},{"base_weights":[6.0165536E-1,8.533862E-2,7.963191E-1,-3.5767424E-1,5.956847E-1,8.02294E-3,-0E0,-5.695765E-1,1.1076727E-1,6.6415225E-3,-1.3700047E-1,-1.032153E-3,7.51678E-4,7.214422E-2,-8.008158E-1,-6.0704455E-2,2.3325008E-1,-2.2865352E-3,3.4721143E-4,-1.9605686E-3,2.4349005E-3,-1.0541439E-2,1.5726843E-3,6.2685367E-4,-2.1522285E-3,3.5751974E-3,-7.982142E-4],"categories":[],"categories_nodes":[],"categories_segments":[],"categories_sizes":[],"default_left":[0,0,0,0,0,0,0,0,0,0,0,0,0,0,0,0,0,0,0,0,0,0,0,0,0,0,0],"id":7,"left_children":[1,3,5,7,9,-1,11,13,15,-1,17,-1,-1,19,21,23,25,-1,-1,-1,-1,-1,-1,-1,-1,-1,-1],"loss_changes":[4.8877686E1,3.573449E1,1.9611053E0,9.298332E0,4.8404503E0,0E0,1.8168959E-1,9.978024E0,9.44324E-1,0E0,3.9533025E-1,0E0,0E0,1.6376011E0,1.3310247E1,6.010439E-1,1.344929E0,0E0,0E0,0E0,0E0,0E0,0E0,0E0,0E0,0E0,0E0],"parents":[2147483647,0,0,1,1,2,2,3,3,4,4,6,6,7,7,8,8,10,10,13,13,14,14,15,15,16,16],"right_children":[2,4,6,8,10,-1,12,14,16,-1,18,-1,-1,20,22,24,26,-1,-1,-1,-1,-1,-1,-1,-1,-1,-1],"split_conditions":[5E1,1E0,8.7E1,1E0,4.9E1,8.02294E-3,9.1E1,3.2E1,3.7E1,6.6415225E-3,1E0,-1.032153E-3,7.51678E-4,2.6E1,4.8E1,3.2E1,4.6E1,-2.2865352E-3,3.4721143E-4,-1.9605686E-3,2.4349005E-3,-1.0541439E-2,1.5726843E-3,6.2685367E-4,-2.1522285E-3,3.5751974E-3,-7.982142E-4],"split_indices":[1,0,1,2,1,0,1,1,1,0,2,0,0,1,1,1,1,0,0,0,0,0,0,0,0,0,0],"split_type":[0,0,0,0,0,0,0,0,0,0,0,0,0,0,0,0,0,0,0,0,0,0,0,0,0,0,0],"sum_hessian":[4.8745285E2,1.3810425E2,3.493486E2,7.500604E1,6.309821E1,3.4706293E2,2.2856636E0,5.0892796E1,2.4113249E1,5.9185287E1,3.9129243E0,1.1470989E0,1.1385647E0,1.47307625E1,3.6162033E1,1.0448017E1,1.3665232E1,2.2880495E0,1.6248748E0,4.042673E0,1.0688089E1,2.8219687E1,7.942346E0,7.314434E0,3.133583E0,9.909225E0,3.7560062E0],"tree_param":{"num_deleted":"0","num_feature":"4","num_nodes":"27","size_leaf_vector":"1"}},{"base_weights":[6.299326E-1,6.950838E-3,3.1015632E-1,4.1717817E-3,-0E0,-2.0483723E-3,3.7056261E-3],"categories":[],"categories_nodes":[],"categories_segments":[],"categories_sizes":[],"default_left":[0,0,0,0,0,0,0],"id":8,"left_children":[1,-1,3,-1,5,-1,-1],"loss_changes":[7.6873474E0,0E0,3.2417736E0,0E0,3.6905851E0,0E0,0E0],"parents":[2147483647,0,0,2,2,4,4],"right_children":[2,-1,4,-1,6,-1,-1],"split_conditions":[1E0,6.950838E-3,1E0,4.1717817E-3,1E0,-2.0483723E-3,3.7056261E-3],"split_indices":[3,0,0,0,2,0,0],"split_type":[0,0,0,0,0,0,0],"sum_hessian":[4.8658762E2,3.931808E2,9.340683E1,6.578357E1,2.7623259E1,1.9875523E1,7.747736E0],"tree_param":{"num_deleted":"0","num_feature":"4","num_nodes":"7","size_leaf_vector":"1"}},{"base_weights":[6.002445E-1,6.7494893E-1,2.241735E-1,5.767278E-3,8.088844E-3,4.137747E-3,-2.395399E-1,-4.7699814E-3,2.6210546E-3],"categories":[],"categories_nodes":[],"categories_segments":[],"categories_sizes":[],"default_left":[0,0,0,0,0,0,0,0,0],"id":9,"left_children":[1,3,5,-1,-1,-1,7,-1,-1],"loss_changes":[1.1980209E1,8.956909E-3,9.723453E0,0E0,0E0,0E0,5.4202337E0,0E0,0E0],"parents":[2147483647,0,0,1,1,2,2,6,6],"right_children":[2,4,6,-1,-1,-1,8,-1,-1],"split_conditions":[1E0,1E0,1E0,5.767278E-3,8.088844E-3,4.137747E-3,1E0,-4.7699814E-3,2.6210546E-3],"split_indices":[3,2,0,0,0,0,2,0,0],"split_type":[0,0,0,0,0,0,0,0,0],"sum_hessian":[4.8628894E2,3.9795956E2,8.832937E1,2.623554E2,1.3560414E2,6.422465E1,2.4104725E1,1.737036E1,6.734365E0],"tree_param":{"num_deleted":"0","num_feature":"4","num_nodes":"9","size_leaf_vector":"1"}},{"base_weights":[5.7839113E-1,6.5882006E-3,2.1041948E-1,3.3643886E-3,-1.0180516E-1,-3.2585268E-3,3.4970038E-3],"categories":[],"categories_nodes":[],"categories_segments":[],"categories_sizes":[],"default_left":[0,0,0,0,0,0,0],"id":10,"left_children":[1,-1,3,-1,5,-1,-1],"loss_changes":[1.25937195E1,0E0,4.5191855E0,0E0,4.789841E0,0E0,0E0],"parents":[2147483647,0,0,2,2,4,4],"right_children":[2,-1,4,-1,6,-1,-1],"split_conditions":[1E0,6.5882006E-3,1E0,3.3643886E-3,1E0,-3.2585268E-3,3.4970038E-3],"split_indices":[3,0,0,0,2,0,0],"split_type":[0,0,0,0,0,0,0],"sum_hessian":[4.7705328E2,3.8388348E2,9.31698E1,6.696672E1,2.6203083E1,2.0112951E1,6.0901313E0],"tree_param":{"num_deleted":"0","num_feature":"4","num_nodes":"7","size_leaf_vector":"1"}},{"base_weights":[6.1462486E-1,1.685472E-1,7.791697E-1,-1.7290998E-1,5.868024E-1,7.881959E-1,-9.554875E-4,1.8584219E-1,-3.5075665E-1,6.536859E-3,-7.480609E-4,5.4252543E-3,8.642019E-1,-1.0856652E-1,3.2284018E-1,-5.746554E-3,2.1968786E-1,9.542336E-3,5.293019E-1,-0E0,-1.4587344E-3,3.53769E-3,-0E0,3.51826E-3,-1.61847E-3,5.8245175E-3,1.1987759E-4],"categories":[],"categories_nodes":[],"categories_segments":[],"categories_sizes":[],"default_left":[0,0,0,0,0,0,0,0,0,0,0,0,0,0,0,0,0,0,0,0,0,0,0,0,0,0,0],"id":11,"left_children":[1,3,5,7,9,11,-1,13,15,-1,-1,-1,17,19,21,-1,23,-1,25,-1,-1,-1,-1,-1,-1,-1,-1],"loss_changes":[3.451451E1,2.219449E1,3.9237823E0,6.343513E0,3.8289814E0,1.2501984E0,0E0,1.8589234E0,9.508361E0,0E0,0E0,0E0,1.8432465E0,1.3815391E-1,2.4383569E-1,0E0,1.8950943E0,0E0,1.7580299E0,0E0,0E0,0E0,0E0,0E0,0E0,0E0,0E0],"parents":[2147483647,0,0,1,1,2,2,3,3,4,4,5,5,7,7,8,8,12,12,13,13,14,14,16,16,18,18],"right_children":[2,4,6,8,10,12,-1,14,16,-1,-1,-1,18,20,22,-1,24,-1,26,-1,-1,-1,-1,-1,-1,-1,-1],"split_conditions":[5E1,1E0,8.7E1,3.3E1,4.9E1,5.7E1,-9.554875E-4,2.7E1,4.7E1,6.536859E-3,-7.480609E-4,5.4252543E-3,1E0,2.2E1,3.2E1,-5.746554E-3,1E0,9.542336E-3,1E0,-0E0,-1.4587344E-3,3.53769E-3,-0E0,3.51826E-3,-1.61847E-3,5.8245175E-3,1.1987759E-4],"split_indices":[1,0,1,1,1,1,0,1,1,0,0,0,0,1,1,0,3,0,3,0,0,0,0,0,0,0,0],"split_type":[0,0,0,0,0,0,0,0,0,0,0,0,0,0,0,0,0,0,0,0,0,0,0,0,0,0,0],"sum_hessian":[4.8457437E2,1.3685236E2,3.4772202E2,7.7914566E1,5.8937782E1,3.4571536E2,2.0066693E0,2.4742674E1,5.3171894E1,5.432176E1,4.6160245E0,1.0246867E2,2.4324667E2,7.3573523E0,1.7385323E1,3.8760956E1,1.4410937E1,1.7595764E2,6.728904E1,1.2504531E0,6.1068993E0,1.4754531E1,2.630791E0,1.2255585E1,2.155352E0,5.9001442E1,8.287601E0],"tree_param":{"num_deleted":"0","num_feature":"4","num_nodes":"27","size_leaf_vector":"1"}},{"base_weights":[5.966645E-1,6.681239E-1,2.5106826E-1,5.603685E-3,8.186923E-3,3.8497353E-3,-9.36046E-2,-2.9133298E-3,2.9300833E-3],"categories":[],"categories_nodes":[],"categories_segments":[],"categories_sizes":[],"default_left":[0,0,0,0,0,0,0,0,0],"id":12,"left_children":[1,3,5,-1,-1,-1,7,-1,-1],"loss_changes":[1.0143387E1,1.2911377E0,5.233126E0,0E0,0E0,0E0,3.5785346E0,0E0,0E0],"parents":[2147483647,0,0,1,1,2,2,6,6],"right_children":[2,4,6,-1,-1,-1,8,-1,-1],"split_conditions":[1E0,1E0,1E0,5.603685E-3,8.186923E-3,3.8497353E-3,1E0,-2.9133298E-3,2.9300833E-3],"split_indices":[3,2,0,0,0,0,2,0,0],"split_type":[0,0,0,0,0,0,0,0,0],"sum_hessian":[4.8726163E2,3.948406E2,9.242102E1,2.5959634E2,1.3524426E2,6.6764465E1,2.5656555E1,1.9461151E1,6.195403E0],"tree_param":{"num_deleted":"0","num_feature":"4","num_nodes":"9","size_leaf_vector":"1"}},{"base_weights":[5.851795E-1,1.242237E-1,8.0554825E-1,-1.8678041E-1,5.4665667E-1,9.083448E-3,4.6173438E-1,-4.7081122E-1,3.171226E-3,6.094131E-3,8.168563E-2,5.166841E-1,-1.7960913E-1,7.708999E-3,-6.988915E-1,-1.0845007E-1,2.2140192E-3,2.3318393E-2,5.3172456E-3,-2.9087225E-3,6.925174E-4,-1.9859122E-3,1.5377532E-3,-9.11814E-3,-3.0302603E-4,-1.8983805E-3,3.0741334E-4,-3.0520724E-4,1.0605704E-3],"categories":[],"categories_nodes":[],"categories_segments":[],"categories_sizes":[],"default_left":[0,0,0,0,0,0,0,0,0,0,0,0,0,0,0,0,0,0,0,0,0,0,0,0,0,0,0,0,0],"id":13,"left_children":[1,3,5,7,9,-1,11,13,-1,-1,15,17,19,21,23,25,-1,27,-1,-1,-1,-1,-1,-1,-1,-1,-1,-1,-1],"loss_changes":[4.7253998E1,2.323119E1,6.4987946E0,1.6362062E1,1.3256817E0,0E0,4.4641495E0,8.121802E0,0E0,0E0,8.633491E-1,2.7607727E-1,7.066345E-1,1.247916E0,6.1902122E0,2.9914805E-1,0E0,1.3314086E-1,0E0,0E0,0E0,0E0,0E0,0E0,0E0,0E0,0E0,0E0,0E0],"parents":[2147483647,0,0,1,1,2,2,3,3,4,4,6,6,7,7,10,10,11,11,12,12,13,13,14,14,15,15,17,17],"right_children":[2,4,6,8,10,-1,12,14,-1,-1,16,18,20,22,24,26,-1,28,-1,-1,-1,-1,-1,-1,-1,-1,-1,-1,-1],"split_conditions":[5.2E1,1E0,1E0,4.8E1,4.9E1,9.083448E-3,7.9E1,3.3E1,3.171226E-3,6.094131E-3,5E1,5.3E1,1E0,2.6E1,1E0,1E0,2.2140192E-3,1E0,5.3172456E-3,-2.9087225E-3,6.925174E-4,-1.9859122E-3,1.5377532E-3,-9.11814E-3,-3.0302603E-4,-1.8983805E-3,3.0741334E-4,-3.0520724E-4,1.0605704E-3],"split_indices":[1,0,0,1,1,0,1,1,0,0,1,1,2,1,2,2,0,2,0,0,0,0,0,0,0,0,0,0,0],"split_type":[0,0,0,0,0,0,0,0,0,0,0,0,0,0,0,0,0,0,0,0,0,0,0,0,0,0,0,0,0],"sum_hessian":[4.6961664E2,1.5768513E2,3.119315E2,9.335215E1,6.433299E1,2.2637419E2,8.5557304E1,6.0755543E1,3.2596603E1,5.29981E1,1.133489E1,8.131375E1,4.2435536E0,2.2022142E1,3.8733402E1,4.2332053E0,7.1016846E0,4.1435075E0,7.717024E1,3.154305E0,1.0892485E0,6.219217E0,1.5802925E1,2.6051249E1,1.2682154E1,2.641949E0,1.5912566E0,2.6725245E0,1.4709831E0],"tree_param":{"num_deleted":"0","num_feature":"4","num_nodes":"29","size_leaf_vector":"1"}},{"base_weights":[5.5556166E-1,1.1100691E-1,7.479609E-1,-2.2752035E-1,5.536749E-1,8.543246E-3,4.1864038E-1,-3.8380855E-1,2.0230831E-1,6.645026E-3,-5.0214026E-2,5.423265E-1,-1.21951744E-1,1.5892024E-1,-6.7957324E-1,3.5320865E-3,-2.0037752E-3,1.7704394E-1,-3.2399446E-3,5.8922158E-3,-3.055243E-2,1.1705849E-2,-2.4098933E-3,-1.0944261E-3,2.9347034E-3,-9.683365E-3,-3.4968017E-3,-0E0,2.2659774E-3,-0E0,-6.618753E-4,-1.6205782E-3,2.5696044E-3],"categories":[],"categories_nodes":[],"categories_segments":[],"categories_sizes":[],"default_left":[0,0,0,0,0,0,0,0,0,0,0,0,0,0,0,0,0,0,0,0,0,0,0,0,0,0,0,0,0,0,0,0,0],"id":14,"left_children":[1,3,5,7,9,-1,11,13,15,-1,17,19,21,23,25,-1,-1,27,-1,-1,29,31,-1,-1,-1,-1,-1,-1,-1,-1,-1,-1,-1],"loss_changes":[3.992726E1,2.509727E1,7.470749E0,7.314145E0,5.4605045E0,0E0,7.7042255E0,1.3328506E1,2.6852362E0,0E0,1.8768193E0,2.7630367E0,5.634945E-1,1.6355236E0,7.9719734E-1,0E0,0E0,2.0696878E-1,0E0,0E0,3.9731424E-2,1.3167354E0,0E0,0E0,0E0,0E0,0E0,0E0,0E0,0E0,0E0,0E0,0E0],"parents":[2147483647,0,0,1,1,2,2,3,3,4,4,6,6,7,7,8,8,10,10,11,11,12,12,13,13,14,14,17,17,20,20,21,21],"right_children":[2,4,6,8,10,-1,12,14,16,-1,18,20,22,24,26,-1,-1,28,-1,-1,30,32,-1,-1,-1,-1,-1,-1,-1,-1,-1,-1,-1],"split_conditions":[5.1E1,1E0,1E0,4.8E1,1E0,8.543246E-3,1E0,3.3E1,1E0,6.645026E-3,3.9E1,7.8E1,6E1,2.7E1,3.7E1,3.5320865E-3,-2.0037752E-3,3.2E1,-3.2399446E-3,5.8922158E-3,8.2E1,5.7E1,-2.4098933E-3,-1.0944261E-3,2.9347034E-3,-9.683365E-3,-3.4968017E-3,-0E0,2.2659774E-3,-0E0,-6.618753E-4,-1.6205782E-3,2.5696044E-3],"split_indices":[1,0,0,1,3,0,3,1,3,0,1,1,1,1,1,0,0,1,0,0,1,1,0,0,0,0,0,0,0,0,0,0,0],"split_type":[0,0,0,0,0,0,0,0,0,0,0,0,0,0,0,0,0,0,0,0,0,0,0,0,0,0,0,0,0,0,0,0,0],"sum_hessian":[4.7153955E2,1.4798232E2,3.2355725E2,8.596892E1,6.20134E1,2.3136937E2,9.2187874E1,6.4683525E1,2.128539E1,5.2248768E1,9.76463E0,7.574943E1,1.6438446E1,2.3851763E1,4.0831764E1,1.7280231E1,4.0051594E0,6.2684407E0,3.49619E0,7.0560905E1,5.188515E0,1.0012499E1,6.425947E0,7.347324E0,1.6504438E1,1.0645137E1,3.0186628E1,2.306527E0,3.9619136E0,2.8827047E0,2.3058105E0,6.652643E0,3.359856E0],"tree_param":{"num_deleted":"0","num_feature":"4","num_nodes":"33","size_leaf_vector":"1"}},{"base_weights":[5.983036E-1,8.739856E-2,7.529853E-1,2.0177138E-1,-3.3462334E-1,8.1624323E-1,4.207713E-1,9.205331E-2,3.7470594E-1,6.418E-2,-6.0178596E-1,8.209618E-3,-0E0,-1.8004303E-1,4.903374E-1,3.7238577E-3,-8.002907E-2,-0E0,5.0431365E-1,-7.5322576E-2,1.7404082E-1,-6.7515755E-1,3.064519E-5,2.4945746E-5,-2.5182315E-3,5.2017723E-3,-2.845894E-4,-4.2347256E-3,7.7379774E-4,1.377494E-3,-7.6543033E-4,5.3066555E-3,-0E0,-0E0,-9.460303E-4,2.6169945E-3,-1.4519304E-4,-7.1075144E-3,-0E0],"categories":[],"categories_nodes":[],"categories_segments":[],"categories_sizes":[],"default_left":[0,0,0,0,0,0,0,0,0,0,0,0,0,0,0,0,0,0,0,0,0,0,0,0,0,0,0,0,0,0,0,0,0,0,0,0,0,0,0],"id":15,"left_children":[1,3,5,7,9,11,13,15,17,19,21,-1,-1,23,25,-1,27,29,31,33,35,37,-1,-1,-1,-1,-1,-1,-1,-1,-1,-1,-1,-1,-1,-1,-1,-1,-1],"loss_changes":[3.6982697E1,6.593542E0,3.6726532E0,1.4087257E0,3.7733495E0,1.1311188E0,4.4112434E0,4.259933E0,1.5975714E0,4.8737666E-1,1.2106252E0,0E0,0E0,3.2674557E-1,1.5667839E0,0E0,3.5356188E0,3.2899335E-1,1.2405205E-1,2.9245049E-2,4.2983982E-1,1.7852116E-1,0E0,0E0,0E0,0E0,0E0,0E0,0E0,0E0,0E0,0E0,0E0,0E0,0E0,0E0,0E0,0E0,0E0],"parents":[2147483647,0,0,1,1,2,2,3,3,4,4,5,5,6,6,7,7,8,8,9,9,10,10,13,13,14,14,16,16,17,17,18,18,19,19,20,20,21,21],"right_children":[2,4,6,8,10,12,14,16,18,20,22,-1,-1,24,26,-1,28,30,32,34,36,38,-1,-1,-1,-1,-1,-1,-1,-1,-1,-1,-1,-1,-1,-1,-1,-1,-1],"split_conditions":[4.8E1,1E0,1E0,1E0,3.6E1,8.7E1,5.1E1,3.2E1,3.6E1,3.1E1,4.6E1,8.209618E-3,-0E0,4.9E1,7.5E1,3.7238577E-3,3.6E1,2.5E1,4.6E1,2.4E1,3.4E1,1E0,3.064519E-5,2.4945746E-5,-2.5182315E-3,5.2017723E-3,-2.845894E-4,-4.2347256E-3,7.7379774E-4,1.377494E-3,-7.6543033E-4,5.3066555E-3,-0E0,-0E0,-9.460303E-4,2.6169945E-3,-1.4519304E-4,-7.1075144E-3,-0E0],"split_indices":[1,3,3,2,1,1,1,1,1,1,1,0,0,1,1,0,1,1,1,1,1,2,0,0,0,0,0,0,0,0,0,0,0,0,0,0,0,0,0],"split_type":[0,0,0,0,0,0,0,0,0,0,0,0,0,0,0,0,0,0,0,0,0,0,0,0,0,0,0,0,0,0,0,0,0,0,0,0,0,0,0],"sum_hessian":[4.716158E2,1.13991356E2,3.5762445E2,9.4723816E1,1.9267542E1,2.869169E2,7.0707565E1,6.9098595E1,2.562522E1,1.00266285E1,9.240912E0,2.851918E2,1.7250917E0,4.9435825E0,6.5763985E1,2.2960379E1,4.6138214E1,9.676822E0,1.5948398E1,3.7973342E0,6.2292943E0,7.941795E0,1.299118E0,2.1536307E0,2.7899516E0,6.307332E1,2.690664E0,1.0186487E1,3.595173E1,1.8268511E0,7.849971E0,1.3875795E1,2.0726018E0,1.7831109E0,2.0142233E0,3.4146957E0,2.8145988E0,6.5431542E0,1.3986408E0],"tree_param":{"num_deleted":"0","num_feature":"4","num_nodes":"39","size_leaf_vector":"1"}},{"base_weights":[5.5759466E-1,6.1876006E-2,7.097567E-1,-3.9885545E-1,5.992407E-1,8.1762403E-1,3.7928903E-1,1.2035724E-1,-6.8274424E-3,7.0963544E-3,-9.58232E-2,4.543101E-3,9.098853E-3,5.395004E-1,-2.6571006E-3,-3.5378337E-2,1.9868343E-1,1.0325028E-1,-2.859487E-3,5.8543296E-3,-6.1683193E-2,9.340551E-4,-1.811721E-3,2.1829614E-3,-0E0,-0E0,1.4124231E-3,-1.0259832E-3,-0E0],"categories":[],"categories_nodes":[],"categories_segments":[],"categories_sizes":[],"default_left":[0,0,0,0,0,0,0,0,0,0,0,0,0,0,0,0,0,0,0,0,0,0,0,0,0,0,0,0,0],"id":16,"left_children":[1,3,5,7,9,11,13,15,-1,-1,17,-1,-1,19,-1,21,23,25,-1,-1,27,-1,-1,-1,-1,-1,-1,-1,-1],"loss_changes":[3.5478577E1,3.33793E1,9.365845E0,1.1815002E1,5.751087E0,4.1184845E0,1.2936381E1,5.614165E-1,0E0,0E0,1.0186461E0,0E0,0E0,3.164194E0,0E0,5.4329336E-1,8.788252E-2,1.0398738E-1,0E0,0E0,7.786615E-2,0E0,0E0,0E0,0E0,0E0,0E0,0E0,0E0],"parents":[2147483647,0,0,1,1,2,2,3,3,4,4,5,5,6,6,7,7,10,10,13,13,15,15,16,16,17,17,20,20],"right_children":[2,4,6,8,10,12,14,16,-1,-1,18,-1,-1,20,-1,22,24,26,-1,-1,28,-1,-1,-1,-1,-1,-1,-1,-1],"split_conditions":[4.8E1,1E0,1E0,3.3E1,1E0,5.5E1,1E0,2.7E1,-6.8274424E-3,7.0963544E-3,3.7E1,4.543101E-3,9.098853E-3,7.8E1,-2.6571006E-3,2.4E1,3.2E1,3.2E1,-2.859487E-3,5.8543296E-3,8.4E1,9.340551E-4,-1.811721E-3,2.1829614E-3,-0E0,-0E0,1.4124231E-3,-1.0259832E-3,-0E0],"split_indices":[1,0,0,1,3,1,3,1,0,0,1,0,0,1,0,1,1,1,0,0,1,0,0,0,0,0,0,0,0],"split_type":[0,0,0,0,0,0,0,0,0,0,0,0,0,0,0,0,0,0,0,0,0,0,0,0,0,0,0,0,0],"sum_hessian":[4.712907E2,1.14763306E2,3.565274E2,6.2674168E1,5.208914E1,2.5653714E2,9.9990265E1,2.3568394E1,3.9105774E1,4.5389755E1,6.6993866E0,6.504781E1,1.9148932E2,8.202652E1,1.7963743E1,7.5856094E0,1.5982785E1,4.2201457E0,2.4792407E0,7.7220314E1,4.8062096E0,4.114746E0,3.4708636E0,1.3367907E1,2.6148787E0,1.4085793E0,2.8115666E0,2.7489781E0,2.0572317E0],"tree_param":{"num_deleted":"0","num_feature":"4","num_nodes":"29","size_leaf_vector":"1"}},{"base_weights":[5.63919E-1,8.794363E-2,7.368379E-1,-2.8528884E-1,5.4735255E-1,8.27726E-1,4.448935E-1,-1.29124E-1,-5.816686E-1,6.3919824E-1,-4.0366247E-2,4.394576E-3,9.014031E-3,5.666084E-1,-8.671897E-2,-2.2468555E-1,2.2296153E-3,-3.192406E-2,-7.1736667E-3,6.693949E-3,-0E0,1.8334188E-1,-3.3258002E-3,5.9456555E-3,-0E0,1.6345384E-2,-2.7485886E-3,7.058971E-4,-3.4254112E-3,-1.7857329E-3,6.828743E-4,-2.6384462E-4,2.516165E-3,-2.3738045E-5,2.8545182E-4,-1.0468471E-3,1.5295281E-3],"categories":[],"categories_nodes":[],"categories_segments":[],"categories_sizes":[],"default_left":[0,0,0,0,0,0,0,0,0,0,0,0,0,0,0,0,0,0,0,0,0,0,0,0,0,0,0,0,0,0,0,0,0,0,0,0,0],"id":17,"left_children":[1,3,5,7,9,11,13,15,17,19,21,-1,-1,23,25,27,-1,29,-1,-1,-1,31,-1,-1,33,35,-1,-1,-1,-1,-1,-1,-1,-1,-1,-1,-1],"loss_changes":[3.723561E1,2.503226E1,4.680954E0,2.6460724E0,4.068367E0,2.397583E0,7.4250813E0,2.7579956E0,1.1882E0,1.133873E0,1.8258069E0,0E0,0E0,1.1885071E0,7.012209E-1,2.4253716E0,0E0,4.1149262E-1,0E0,0E0,0E0,3.9904207E-1,0E0,0E0,9.50279E-3,6.0225713E-1,0E0,0E0,0E0,0E0,0E0,0E0,0E0,0E0,0E0,0E0,0E0],"parents":[2147483647,0,0,1,1,2,2,3,3,4,4,5,5,6,6,7,7,8,8,9,9,10,10,13,13,14,14,15,15,17,17,21,21,24,24,25,25],"right_children":[2,4,6,8,10,12,14,16,18,20,22,-1,-1,24,26,28,-1,30,-1,-1,-1,32,-1,-1,34,36,-1,-1,-1,-1,-1,-1,-1,-1,-1,-1,-1],"split_conditions":[5E1,1E0,1E0,1E0,1E0,5.5E1,1E0,4.8E1,3.6E1,4.9E1,3.9E1,4.394576E-3,9.014031E-3,7.8E1,7E1,3.2E1,2.2296153E-3,2.5E1,-7.1736667E-3,6.693949E-3,-0E0,3.1E1,-3.3258002E-3,5.9456555E-3,8.3E1,5.7E1,-2.7485886E-3,7.058971E-4,-3.4254112E-3,-1.7857329E-3,6.828743E-4,-2.6384462E-4,2.516165E-3,-2.3738045E-5,2.8545182E-4,-1.0468471E-3,1.5295281E-3],"split_indices":[1,0,0,3,3,1,3,1,1,1,1,0,0,1,1,1,0,1,0,0,0,1,0,0,1,1,0,0,0,0,0,0,0,0,0,0,0],"split_type":[0,0,0,0,0,0,0,0,0,0,0,0,0,0,0,0,0,0,0,0,0,0,0,0,0,0,0,0,0,0,0,0,0,0,0,0,0],"sum_hessian":[4.5529297E2,1.2611823E2,3.2917474E2,7.107626E1,5.5041965E1,2.3572429E2,9.345046E1,5.7056484E1,1.4019783E1,4.7581066E1,7.460898E0,4.9786858E1,1.8593742E2,7.6270294E1,1.7180172E1,4.8839283E1,8.2172E0,5.950432E0,8.06935E0,4.503369E1,2.5473773E0,5.36689E0,2.0940077E0,7.171003E1,4.5602684E0,1.5282128E1,1.8980429E0,1.3866407E1,3.4972878E1,1.2666398E0,4.683792E0,1.0263424E0,4.3405476E0,2.987752E0,1.5725164E0,7.401404E0,7.8807244E0],"tree_param":{"num_deleted":"0","num_feature":"4","num_nodes":"37","size_leaf_vector":"1"}},{"base_weights":[6.046697E-1,1.9062658E-1,7.996889E-1,3.1105688E-1,-2.9154634E-1,8.097398E-3,-9.966076E-4,2.2168468E-1,4.3876315E-3,8.539216E-2,-4.6283197E-1,2.8823575E-1,-1.5424024E-1,-0E0,1.6422033E-3,-5.504388E-3,-0E0,3.8303523E-3,1.6919395E-3,-4.1632773E-3,1.8292642E-3,-1.8764656E-3,1.3745473E-3,3.0252882E-4,-0E0],"categories":[],"categories_nodes":[],"categories_segments":[],"categories_sizes":[],"default_left":[0,0,0,0,0,0,0,0,0,0,0,0,0,0,0,0,0,0,0,0,0,0,0,0,0],"id":18,"left_children":[1,3,5,7,9,-1,-1,11,-1,13,15,17,19,21,-1,-1,23,-1,-1,-1,-1,-1,-1,-1,-1],"loss_changes":[3.734761E1,1.0791687E1,4.1222534E0,3.148508E-1,3.0579479E0,0E0,0E0,3.1610289E0,0E0,2.1162331E-1,1.4069862E0,1.4325762E-1,2.7615833E0,7.050307E-1,0E0,0E0,1.1406371E-2,0E0,0E0,0E0,0E0,0E0,0E0,0E0,0E0],"parents":[2147483647,0,0,1,1,2,2,3,3,4,4,7,7,9,9,10,10,11,11,12,12,13,13,16,16],"right_children":[2,4,6,8,10,-1,-1,12,-1,14,16,18,20,22,-1,-1,24,-1,-1,-1,-1,-1,-1,-1,-1],"split_conditions":[5.2E1,1E0,8.6E1,4.8E1,3.6E1,8.097398E-3,-9.966076E-4,4.5E1,4.3876315E-3,1E0,5.1E1,3.3E1,1E0,3.2E1,1.6422033E-3,-5.504388E-3,1E0,3.8303523E-3,1.6919395E-3,-4.1632773E-3,1.8292642E-3,-1.8764656E-3,1.3745473E-3,3.0252882E-4,-0E0],"split_indices":[1,3,1,1,1,0,0,1,0,2,1,1,2,1,0,0,2,0,0,0,0,0,0,0,0],"split_type":[0,0,0,0,0,0,0,0,0,0,0,0,0,0,0,0,0,0,0,0,0,0,0,0,0],"sum_hessian":[4.7754178E2,1.6005957E2,3.174822E2,1.31741E2,2.8318567E1,3.155085E2,1.973714E0,9.59011E1,3.5839905E1,9.502498E0,1.881607E1,8.458878E1,1.1312318E1,6.3822107E0,3.1202865E0,1.5017176E1,3.7988944E0,3.2405647E1,5.2183132E1,5.878183E0,5.434135E0,2.6594913E0,3.7227197E0,2.4627523E0,1.3361418E0],"tree_param":{"num_deleted":"0","num_feature":"4","num_nodes":"25","size_leaf_vector":"1"}},{"base_weights":[5.678882E-1,6.631897E-1,1.3613391E-1,5.5952463E-3,8.038067E-3,2.8222408E-3,-2.0401753E-1,-3.9045666E-3,2.4603286E-3],"categories":[],"categories_nodes":[],"categories_segments":[],"categories_sizes":[],"default_left":[0,0,0,0,0,0,0,0,0],"id":19,"left_children":[1,3,5,-1,-1,-1,7,-1,-1],"loss_changes":[1.7958344E1,3.5906982E-1,5.4933724E0,0E0,0E0,0E0,3.9085007E0,0E0,0E0],"parents":[2147483647,0,0,1,1,2,2,6,6],"right_children":[2,4,6,-1,-1,-1,8,-1,-1],"split_conditions":[1E0,1E0,1E0,5.5952463E-3,8.038067E-3,2.8222408E-3,1E0,-3.9045666E-3,2.4603286E-3],"split_indices":[3,2,0,0,0,0,2,0,0],"split_type":[0,0,0,0,0,0,0,0,0],"sum_hessian":[4.581005E2,3.6992767E2,8.8172844E1,2.4365094E2,1.2627672E2,6.390114E1,2.4271706E1,1.8883936E1,5.387769E0],"tree_param":{"num_deleted":"0","num_feature":"4","num_nodes":"9","size_leaf_vector":"1"}},{"base_weights":[5.667036E-1,6.4541435E-1,2.0120145E-1,5.282434E-3,8.155136E-3,3.2734238E-3,-1.1271632E-1,-3.0306869E-3,2.5257405E-3],"categories":[],"categories_nodes":[],"categories_segments":[],"categories_sizes":[],"default_left":[0,0,0,0,0,0,0,0,0],"id":20,"left_children":[1,3,5,-1,-1,-1,7,-1,-1],"loss_changes":[1.2075714E1,2.7725677E0,4.4612584E0,0E0,0E0,0E0,3.2347884E0,0E0,0E0],"parents":[2147483647,0,0,1,1,2,2,6,6],"right_children":[2,4,6,-1,-1,-1,8,-1,-1],"split_conditions":[1E0,1E0,1E0,5.282434E-3,8.155136E-3,3.2734238E-3,1E0,-3.0306869E-3,2.5257405E-3],"split_indices":[3,2,0,0,0,0,2,0,0],"split_type":[0,0,0,0,0,0,0,0,0],"sum_hessian":[4.6960086E2,3.7896472E2,9.063612E1,2.5044385E2,1.2852087E2,6.548682E1,2.514931E1,1.8553318E1,6.5959897E0],"tree_param":{"num_deleted":"0","num_feature":"4","num_nodes":"9","size_leaf_vector":"1"}},{"base_weights":[5.5742943E-1,1.3319488E-1,7.669923E-1,-1.4128359E-1,4.9145678E-1,8.738293E-3,4.33293E-1,-3.710677E-1,2.8084254E-1,6.5231193E-3,-2.235389E-1,5.46556E-1,-1.04195915E-1,3.5468604E-2,-5.3842306E-1,3.1892484E-1,-0E0,1.5708902E-1,-5.1349476E-3,5.7006953E-3,3.5009973E-2,3.2166525E-4,-1.569383E-1,-4.5019787E-4,1.008468E-3,-7.640959E-3,-1.5328228E-3,3.6677676E-3,1.9359743E-4,-7.9027814E-4,1.2391146E-3,-0E0,2.032627E-3,-3.66725E-5,8.229398E-4,-2.7672993E-3,-0E0],"categories":[],"categories_nodes":[],"categories_segments":[],"categories_sizes":[],"default_left":[0,0,0,0,0,0,0,0,0,0,0,0,0,0,0,0,0,0,0,0,0,0,0,0,0,0,0,0,0,0,0,0,0,0,0,0,0],"id":21,"left_children":[1,3,5,7,9,-1,11,13,15,-1,17,19,21,23,25,27,29,31,-1,-1,33,-1,35,-1,-1,-1,-1,-1,-1,-1,-1,-1,-1,-1,-1,-1,-1],"loss_changes":[4.042148E1,1.7458315E1,6.702057E0,1.10289755E1,1.0436703E1,0E0,6.6813087E0,5.3031044E0,2.8648067E-1,0E0,3.2883892E0,4.8768806E-1,2.8887114E-1,2.2773013E-1,2.8982286E0,2.3262525E-1,2.8001332E-1,1.6931841E-1,0E0,0E0,7.013858E-2,0E0,4.7418314E-1,0E0,0E0,0E0,0E0,0E0,0E0,0E0,0E0,0E0,0E0,0E0,0E0,0E0,0E0],"parents":[2147483647,0,0,1,1,2,2,3,3,4,4,6,6,7,7,8,8,10,10,11,11,12,12,13,13,14,14,15,15,16,16,17,17,20,20,22,22],"right_children":[2,4,6,8,10,-1,12,14,16,-1,18,20,22,24,26,28,30,32,-1,-1,34,-1,36,-1,-1,-1,-1,-1,-1,-1,-1,-1,-1,-1,-1,-1,-1],"split_conditions":[5.2E1,1E0,1E0,4.8E1,1E0,8.738293E-3,1E0,3.2E1,1E0,6.5231193E-3,4E1,7.8E1,5.4E1,2.7E1,3.9E1,5.1E1,5.1E1,3.2E1,-5.1349476E-3,5.7006953E-3,8.1E1,3.2166525E-4,5.7E1,-4.5019787E-4,1.008468E-3,-7.640959E-3,-1.5328228E-3,3.6677676E-3,1.9359743E-4,-7.9027814E-4,1.2391146E-3,-0E0,2.032627E-3,-3.66725E-5,8.229398E-4,-2.7672993E-3,-0E0],"split_indices":[1,0,0,1,3,0,3,1,3,0,1,1,1,1,1,1,1,1,0,0,1,0,1,0,0,0,0,0,0,0,0,0,0,0,0,0,0],"split_type":[0,0,0,0,0,0,0,0,0,0,0,0,0,0,0,0,0,0,0,0,0,0,0,0,0,0,0,0,0,0,0,0,0,0,0,0,0],"sum_hessian":[4.61219E2,1.5869733E2,3.0252167E2,9.249448E1,6.620285E1,2.1575964E2,8.6762024E1,6.1442383E1,3.1052092E1,5.533087E1,1.0871982E1,7.229015E1,1.44718685E1,1.9344381E1,4.2098E1,2.465006E1,6.402031E0,5.9367127E0,4.9352694E0,6.708506E1,5.205092E0,2.4803143E0,1.1991554E1,6.6381536E0,1.2706228E1,1.9521673E1,2.2576326E1,1.788105E1,6.7690105E0,3.7632556E0,2.6387753E0,2.3199093E0,3.6168032E0,2.120551E0,3.0845406E0,3.265004E0,8.72655E0],"tree_param":{"num_deleted":"0","num_feature":"4","num_nodes":"37","size_leaf_vector":"1"}},{"base_weights":[5.53761E-1,6.4536077E-3,1.145693E-1,2.375593E-3,-1.3384189E-1,-3.2742952E-3,2.5212625E-3],"categories":[],"categories_nodes":[],"categories_segments":[],"categories_sizes":[],"default_left":[0,0,0,0,0,0,0],"id":22,"left_children":[1,-1,3,-1,5,-1,-1],"loss_changes":[1.7145538E1,0E0,3.1638155E0,0E0,3.503296E0,0E0,0E0],"parents":[2147483647,0,0,2,2,4,4],"right_children":[2,-1,4,-1,6,-1,-1],"split_conditions":[1E0,6.4536077E-3,1E0,2.375593E-3,1E0,-3.2742952E-3,2.5212625E-3],"split_indices":[3,0,0,0,2,0,0],"split_type":[0,0,0,0,0,0,0],"sum_hessian":[4.4401352E2,3.6256305E2,8.145048E1,5.6116486E1,2.5333992E1,1.8744528E1,6.589464E0],"tree_param":{"num_deleted":"0","num_feature":"4","num_nodes":"7","size_leaf_vector":"1"}},{"base_weights":[5.628787E-1,5.388053E-2,7.2021776E-1,-3.5340697E-1,5.4818165E-1,8.145409E-1,4.3151864E-1,1.5231462E-1,-6.144844E-3,6.676696E-3,-7.95653E-2,4.432449E-3,9.053344E-3,5.6792104E-1,-1.8221862E-3,-2.057499E-1,3.381862E-1,7.804969E-2,-2.61196E-3,6.1607175E-3,-7.0646696E-2,3.129118E-4,-2.876117E-3,3.747384E-3,-0E0,-1.0086372E-3,1.961916E-3,-0E0,-1.0862827E-3],"categories":[],"categories_nodes":[],"categories_segments":[],"categories_sizes":[],"default_left":[0,0,0,0,0,0,0,0,0,0,0,0,0,0,0,0,0,0,0,0,0,0,0,0,0,0,0,0,0],"id":23,"left_children":[1,3,5,7,9,11,13,15,-1,-1,17,-1,-1,19,-1,21,23,25,-1,-1,27,-1,-1,-1,-1,-1,-1,-1,-1],"loss_changes":[3.6194992E1,2.6306637E1,5.4220886E0,1.0623811E1,5.2460995E0,3.8096313E0,1.0354887E1,2.875E0,0E0,0E0,8.0187804E-1,0E0,0E0,3.5458584E0,0E0,5.314835E-1,3.0226207E-1,5.7733893E-1,0E0,0E0,6.700902E-2,0E0,0E0,0E0,0E0,0E0,0E0,0E0,0E0],"parents":[2147483647,0,0,1,1,2,2,3,3,4,4,5,5,6,6,7,7,10,10,13,13,15,15,16,16,17,17,20,20],"right_children":[2,4,6,8,10,12,14,16,-1,-1,18,-1,-1,20,-1,22,24,26,-1,-1,28,-1,-1,-1,-1,-1,-1,-1,-1],"split_conditions":[4.8E1,1E0,1E0,3.3E1,1E0,5.5E1,1E0,2.7E1,-6.144844E-3,6.676696E-3,4E1,4.432449E-3,9.053344E-3,7.8E1,-1.8221862E-3,2.2E1,3.2E1,3.2E1,-2.61196E-3,6.1607175E-3,8.2E1,3.129118E-4,-2.876117E-3,3.747384E-3,-0E0,-1.0086372E-3,1.961916E-3,-0E0,-1.0862827E-3],"split_indices":[1,0,0,1,3,1,3,1,0,0,1,0,0,1,0,1,1,1,0,0,1,0,0,0,0,0,0,0,0],"split_type":[0,0,0,0,0,0,0,0,0,0,0,0,0,0,0,0,0,0,0,0,0,0,0,0,0,0,0,0,0],"sum_hessian":[4.516338E2,1.10562355E2,3.410714E2,6.1624603E1,4.8937756E1,2.4204492E2,9.90265E1,2.1748102E1,3.98765E1,4.124714E1,7.690619E0,6.0197186E1,1.8184773E2,8.2297226E1,1.6729269E1,6.1469936E0,1.56011095E1,5.696941E0,1.9936783E0,7.7582466E1,4.714762E0,1.5958153E0,4.5511785E0,1.3002812E1,2.5982976E0,1.1641909E0,4.5327497E0,2.8123462E0,1.9024162E0],"tree_param":{"num_deleted":"0","num_feature":"4","num_nodes":"29","size_leaf_vector":"1"}},{"base_weights":[5.489707E-1,4.318141E-2,7.494697E-1,-3.1637484E-1,5.043208E-1,8.28601E-1,4.850196E-1,-4.9991527E-1,8.210145E-2,5.6239753E-3,-9.4348684E-2,4.1273595E-3,9.114841E-3,5.442854E-3,-1.8104763E-1,2.1686414E-2,-6.843367E-1,-1.3108365E-1,2.3537016E-1,-1.3175996E-3,-0E0,-3.2020044E-3,9.93542E-4,-2.083061E-3,1.9021668E-3,-9.306573E-3,6.3415506E-4,1.5306516E-4,-2.7894527E-3,3.329292E-3,-3.4447777E-4],"categories":[],"categories_nodes":[],"categories_segments":[],"categories_sizes":[],"default_left":[0,0,0,0,0,0,0,0,0,0,0,0,0,0,0,0,0,0,0,0,0,0,0,0,0,0,0,0,0,0,0],"id":24,"left_children":[1,3,5,7,9,11,13,15,17,-1,19,-1,-1,-1,21,23,25,27,29,-1,-1,-1,-1,-1,-1,-1,-1,-1,-1,-1,-1],"loss_changes":[4.52482E1,2.4901903E1,2.0895996E0,6.777355E0,3.0523796E0,3.6159668E0,5.1157246E0,6.243347E0,1.4808452E0,0E0,9.48789E-2,0E0,0E0,0E0,1.0133641E0,1.3420762E0,9.363928E0,5.943764E-1,9.1899216E-1,0E0,0E0,0E0,0E0,0E0,0E0,0E0,0E0,0E0,0E0,0E0,0E0],"parents":[2147483647,0,0,1,1,2,2,3,3,4,4,5,5,6,6,7,7,8,8,10,10,14,14,15,15,16,16,17,17,18,18],"right_children":[2,4,6,8,10,12,14,16,18,-1,20,-1,-1,-1,22,24,26,28,30,-1,-1,-1,-1,-1,-1,-1,-1,-1,-1,-1,-1],"split_conditions":[5E1,1E0,1E0,1E0,4.9E1,5.5E1,7.8E1,3.2E1,3.7E1,5.6239753E-3,1E0,4.1273595E-3,9.114841E-3,5.442854E-3,1E0,2.6E1,4.6E1,3.3E1,4.6E1,-1.3175996E-3,-0E0,-3.2020044E-3,9.93542E-4,-2.083061E-3,1.9021668E-3,-9.306573E-3,6.3415506E-4,1.5306516E-4,-2.7894527E-3,3.329292E-3,-3.4447777E-4],"split_indices":[1,0,0,2,1,1,1,1,1,0,2,0,0,0,2,1,1,1,1,0,0,0,0,0,0,0,0,0,0,0,0],"split_type":[0,0,0,0,0,0,0,0,0,0,0,0,0,0,0,0,0,0,0,0,0,0,0,0,0,0,0,0,0,0,0],"sum_hessian":[4.4328897E2,1.2999763E2,3.1329132E2,7.419885E1,5.5798782E1,2.2326126E2,9.003006E1,4.9916252E1,2.4282598E1,5.2178066E1,3.6207144E0,4.8041843E1,1.7521942E2,8.504216E1,4.9879003E0,1.4635466E1,3.528079E1,9.397127E0,1.4885471E1,2.4491675E0,1.171547E0,3.5767226E0,1.4111779E0,3.9364383E0,1.0699027E1,2.5201609E1,1.007918E1,7.5276527E0,1.8694743E0,1.0575661E1,4.3098106E0],"tree_param":{"num_deleted":"0","num_feature":"4","num_nodes":"31","size_leaf_vector":"1"}},{"base_weights":[5.517621E-1,6.2539494E-1,2.1280894E-1,5.2097617E-3,7.696232E-3,3.4487005E-3,-1.0982389E-1,-2.613273E-3,2.0882762E-3],"categories":[],"categories_nodes":[],"categories_segments":[],"categories_sizes":[],"default_left":[0,0,0,0,0,0,0,0,0],"id":25,"left_children":[1,3,5,-1,-1,-1,7,-1,-1],"loss_changes":[9.794144E0,9.7198486E-1,4.7108965E0,0E0,0E0,0E0,2.272027E0,0E0,0E0],"parents":[2147483647,0,0,1,1,2,2,6,6],"right_children":[2,4,6,-1,-1,-1,8,-1,-1],"split_conditions":[1E0,1E0,1E0,5.2097617E-3,7.696232E-3,3.4487005E-3,1E0,-2.613273E-3,2.0882762E-3],"split_indices":[3,2,0,0,0,0,2,0,0],"split_type":[0,0,0,0,0,0,0,0,0],"sum_hessian":[4.5254144E2,3.6362344E2,8.891799E1,2.3968442E2,1.2393903E2,6.370327E1,2.5214722E1,1.9372234E1,5.8424873E0],"tree_param":{"num_deleted":"0","num_feature":"4","num_nodes":"9","size_leaf_vector":"1"}},{"base_weights":[5.7253546E-1,1.727897E-1,7.547461E-1,-1.7763826E-1,6.016835E-1,8.6454125E-3,4.1061136E-1,-3.6104646E-1,1.8609412E-1,6.4751604E-3,1.5381044E-1,5.021655E-1,-3.8493612E-1,1.3349567E-1,-6.003435E-1,2.4246844E-3,-1.3703912E-3,-9.441629E-2,2.8875738E-3,2.1805635E-1,5.7084025E-3,-5.7174307E-3,8.502455E-4,2.5340426E-3,1.1232932E-5,-7.819873E-3,-0E0,-1.3980583E-3,1.1378585E-3,-1.6819369E-3,2.1718563E-4,-7.4507625E-5,4.74159E-3],"categories":[],"categories_nodes":[],"categories_segments":[],"categories_sizes":[],"default_left":[0,0,0,0,0,0,0,0,0,0,0,0,0,0,0,0,0,0,0,0,0,0,0,0,0,0,0,0,0,0,0,0,0],"id":26,"left_children":[1,3,5,7,9,-1,11,13,15,-1,17,19,21,23,25,-1,27,29,-1,31,-1,-1,-1,-1,-1,-1,-1,-1,-1,-1,-1,-1,-1],"loss_changes":[3.1682083E1,2.4969938E1,7.586975E0,7.0183506E0,1.181736E-1,0E0,8.949003E0,8.926714E0,5.163225E-1,0E0,1.0725397E0,1.2784386E-1,2.0424528E0,3.340881E-1,4.8132687E0,0E0,4.347881E-1,2.264596E-1,0E0,2.3032267E0,0E0,0E0,0E0,0E0,0E0,0E0,0E0,0E0,0E0,0E0,0E0,0E0,0E0],"parents":[2147483647,0,0,1,1,2,2,3,3,4,4,6,6,7,7,8,8,10,10,11,11,12,12,13,13,14,14,16,16,17,17,19,19],"right_children":[2,4,6,8,10,-1,12,14,16,-1,18,20,22,24,26,-1,28,30,-1,32,-1,-1,-1,-1,-1,-1,-1,-1,-1,-1,-1,-1,-1],"split_conditions":[5.2E1,1E0,1E0,4.8E1,4.9E1,8.6454125E-3,7.6E1,3.3E1,5.1E1,6.4751604E-3,5E1,5.8E1,1E0,2.4E1,1E0,2.4246844E-3,1E0,1E0,2.8875738E-3,1E0,5.7084025E-3,-5.7174307E-3,8.502455E-4,2.5340426E-3,1.1232932E-5,-7.819873E-3,-0E0,-1.3980583E-3,1.1378585E-3,-1.6819369E-3,2.1718563E-4,-7.4507625E-5,4.74159E-3],"split_indices":[1,0,0,1,1,0,1,1,1,0,1,1,2,1,2,0,2,2,0,2,0,0,0,0,0,0,0,0,0,0,0,0,0],"split_type":[0,0,0,0,0,0,0,0,0,0,0,0,0,0,0,0,0,0,0,0,0,0,0,0,0,0,0,0,0,0,0,0,0],"sum_hessian":[4.4923837E2,1.4761588E2,3.016225E2,8.3821724E1,6.3794155E1,2.1610101E2,8.55215E1,5.668659E1,2.7135132E1,5.2815388E1,1.0978767E1,8.056601E1,4.955493E0,1.924529E1,3.74413E1,2.0656412E1,6.4787197E0,3.6193976E0,7.3593693E0,2.5228374E1,5.5337635E1,2.7575397E0,2.197953E0,3.318626E0,1.5926664E1,2.583246E1,1.1608838E1,3.941648E0,2.5370717E0,2.1049175E0,1.51448E0,1.7540287E1,7.688088E0],"tree_param":{"num_deleted":"0","num_feature":"4","num_nodes":"33","size_leaf_vector":"1"}},{"base_weights":[5.546394E-1,1.2180753E-1,7.4332196E-1,-2.327872E-1,5.833372E-1,8.497831E-1,4.0293154E-1,-3.7454793E-1,1.7851341E-3,6.198603E-3,5.5523828E-2,4.171049E-3,9.130118E-3,4.525543E-1,-9.654083E-2,7.2675906E-2,-6.180592E-1,-6.155287E-4,1.6787661E-3,2.8519952E-1,6.6461675E-3,-1.8938485E-3,5.3633907E-4,-2.0244233E-4,1.3217017E-3,-8.137528E-3,-1.773318E-4,6.3678605E-4,5.0211092E-3],"categories":[],"categories_nodes":[],"categories_segments":[],"categories_sizes":[],"default_left":[0,0,0,0,0,0,0,0,0,0,0,0,0,0,0,0,0,0,0,0,0,0,0,0,0,0,0,0,0],"id":27,"left_children":[1,3,5,7,9,11,13,15,-1,-1,17,-1,-1,19,21,23,25,-1,-1,27,-1,-1,-1,-1,-1,-1,-1,-1,-1],"loss_changes":[3.6316513E1,2.65297E1,7.4853973E0,6.1838975E0,6.6423416E-1,1.8833618E0,2.9937296E0,8.696638E0,0E0,0E0,3.7207437E-1,0E0,0E0,8.227062E-1,3.9260352E-1,2.7089766E-1,5.218548E0,0E0,0E0,2.718698E0,0E0,0E0,0E0,0E0,0E0,0E0,0E0,0E0,0E0],"parents":[2147483647,0,0,1,1,2,2,3,3,4,4,5,5,6,6,7,7,10,10,13,13,14,14,15,15,16,16,19,19],"right_children":[2,4,6,8,10,12,14,16,-1,-1,18,-1,-1,20,22,24,26,-1,-1,28,-1,-1,-1,-1,-1,-1,-1,-1,-1],"split_conditions":[5.1E1,1E0,1E0,4.8E1,4.9E1,5.5E1,7.6E1,3.3E1,1.7851341E-3,6.198603E-3,5E1,4.171049E-3,9.130118E-3,1E0,1E0,2.7E1,1E0,-6.155287E-4,1.6787661E-3,6.4E1,6.6461675E-3,-1.8938485E-3,5.3633907E-4,-2.0244233E-4,1.3217017E-3,-8.137528E-3,-1.773318E-4,6.3678605E-4,5.0211092E-3],"split_indices":[1,0,0,1,1,1,1,1,0,0,1,0,0,2,2,1,2,0,0,1,0,0,0,0,0,0,0,0,0],"split_type":[0,0,0,0,0,0,0,0,0,0,0,0,0,0,0,0,0,0,0,0,0,0,0,0,0,0,0,0,0],"sum_hessian":[4.5106888E2,1.4273802E2,3.0833087E2,8.291046E1,5.9827553E1,2.2235335E2,8.597752E1,6.322744E1,1.9683025E1,5.3438522E1,6.3890295E0,3.9044533E1,1.8330882E2,7.997262E1,6.0049E0,2.403953E1,3.918791E1,3.1636057E0,3.225424E0,5.912175E1,2.0850872E1,4.1547537E0,1.8501465E0,8.678407E0,1.5361123E1,2.6244644E1,1.2943265E1,3.679036E1,2.2331388E1],"tree_param":{"num_deleted":"0","num_feature":"4","num_nodes":"29","size_leaf_vector":"1"}},{"base_weights":[5.323326E-1,6.925856E-2,7.266357E-1,-2.51059E-1,4.7701544E-1,8.292625E-1,4.0607253E-1,1.7734313E-1,-3.964439E-1,6.3776546E-3,-2.5841168E-1,4.2486912E-1,8.872492E-3,5.2540946E-1,-1.179403E-1,-2.312458E-2,2.5413805E-3,-5.8698715E-3,1.2722965E-1,9.583583E-2,-5.333056E-3,5.1591652E-3,1.5403332E-1,5.6347763E-3,-7.2083786E-2,6.350919E-3,-2.6048562E-1,2.2434503E-4,-1.0510474E-3,2.2187198E-3,-8.481116E-4,-2.0061224E-4,1.6149967E-3,-0E0,1.8519113E-3,-1.5015289E-3,2.502137E-4,-3.409385E-4,8.8042754E-4,-3.023156E-3,-0E0],"categories":[],"categories_nodes":[],"categories_segments":[],"categories_sizes":[],"default_left":[0,0,0,0,0,0,0,0,0,0,0,0,0,0,0,0,0,0,0,0,0,0,0,0,0,0,0,0,0,0,0,0,0,0,0,0,0,0,0,0,0],"id":28,"left_children":[1,3,5,7,9,11,13,15,17,-1,19,21,-1,23,25,27,-1,-1,29,31,-1,-1,33,-1,35,37,39,-1,-1,-1,-1,-1,-1,-1,-1,-1,-1,-1,-1,-1,-1],"loss_changes":[4.0589615E1,2.0655643E1,6.6416473E0,6.3442674E0,1.00300045E1,1.0592957E0,7.021227E0,6.136682E-1,7.988719E0,0E0,2.578949E0,9.352398E-2,0E0,2.5474186E0,6.002524E-1,1.2193958E-1,0E0,0E0,7.838185E-1,2.2472037E-1,0E0,0E0,4.4044018E-2,0E0,1.9922437E-1,1.2854582E-1,4.7600627E-2,0E0,0E0,0E0,0E0,0E0,0E0,0E0,0E0,0E0,0E0,0E0,0E0,0E0,0E0],"parents":[2147483647,0,0,1,1,2,2,3,3,4,4,5,5,6,6,7,7,8,8,10,10,11,11,13,13,14,14,15,15,18,18,19,19,22,22,24,24,25,25,26,26],"right_children":[2,4,6,8,10,12,14,16,18,-1,20,22,-1,24,26,28,-1,-1,30,32,-1,-1,34,-1,36,38,40,-1,-1,-1,-1,-1,-1,-1,-1,-1,-1,-1,-1,-1,-1],"split_conditions":[5.1E1,1E0,1E0,3.2E1,1E0,5.5E1,1E0,2.6E1,4.8E1,6.3776546E-3,4E1,5.3E1,8.872492E-3,7.9E1,6.2E1,1E0,2.5413805E-3,-5.8698715E-3,1E0,3.2E1,-5.333056E-3,5.1591652E-3,5.4E1,5.6347763E-3,8.4E1,5.7E1,6.4E1,2.2434503E-4,-1.0510474E-3,2.2187198E-3,-8.481116E-4,-2.0061224E-4,1.6149967E-3,-0E0,1.8519113E-3,-1.5015289E-3,2.502137E-4,-3.409385E-4,8.8042754E-4,-3.023156E-3,-0E0],"split_indices":[1,0,0,1,3,1,3,1,1,0,1,1,0,1,1,3,0,0,3,1,0,0,1,0,1,1,1,0,0,0,0,0,0,0,0,0,0,0,0,0,0],"split_type":[0,0,0,0,0,0,0,0,0,0,0,0,0,0,0,0,0,0,0,0,0,0,0,0,0,0,0,0,0,0,0,0,0,0,0,0,0,0,0,0,0],"sum_hessian":[4.5112848E2,1.3811137E2,3.130171E2,7.881452E1,5.9296844E1,2.2390596E2,8.9111145E1,1.8541477E1,6.0273045E1,5.0308273E1,8.98857E0,3.9604084E1,1.8430186E2,7.333712E1,1.5774026E1,5.2679105E0,1.3273566E1,4.4006615E1,1.6266432E1,5.978759E0,3.0098119E0,2.1485931E1,1.8118153E1,7.026636E1,3.070761E0,1.165679E1,4.1172357E0,4.1345763E0,1.1333345E0,1.25563965E1,3.7100344E0,1.9200977E0,4.058661E0,7.381397E0,1.0736755E1,1.5282462E0,1.5425147E0,7.600051E0,4.0567393E0,1.0016634E0,3.1155725E0],"tree_param":{"num_deleted":"0","num_feature":"4","num_nodes":"41","size_leaf_vector":"1"}},{"base_weights":[5.3345156E-1,6.242686E-1,1.17178164E-1,5.1755584E-3,7.7366945E-3,2.2571066E-3,-1.12345375E-1,-2.7419499E-3,2.2530227E-3],"categories":[],"categories_nodes":[],"categories_segments":[],"categories_sizes":[],"default_left":[0,0,0,0,0,0,0,0,0],"id":29,"left_children":[1,3,5,-1,-1,-1,7,-1,-1],"loss_changes":[1.6310822E1,1.3258972E0,2.696425E0,0E0,0E0,0E0,2.6068416E0,0E0,0E0],"parents":[2147483647,0,0,1,1,2,2,6,6],"right_children":[2,4,6,-1,-1,-1,8,-1,-1],"split_conditions":[1E0,1E0,1E0,5.1755584E-3,7.7366945E-3,2.2571066E-3,1E0,-2.7419499E-3,2.2530227E-3],"split_indices":[3,2,0,0,0,0,2,0,0],"split_type":[0,0,0,0,0,0,0,0,0],"sum_hessian":[4.506052E2,3.648166E2,8.57886E1,2.4080524E2,1.2401136E2,5.9838104E1,2.5950497E1,1.9813223E1,6.1372724E0],"tree_param":{"num_deleted":"0","num_feature":"4","num_nodes":"9","size_leaf_vector":"1"}},{"base_weights":[5.359396E-1,6.051133E-1,2.1965443E-1,4.8983973E-3,7.629559E-3,3.4647186E-3,-9.370036E-2,-3.3209007E-3,3.0190006E-3],"categories":[],"categories_nodes":[],"categories_segments":[],"categories_sizes":[],"default_left":[0,0,0,0,0,0,0,0,0],"id":30,"left_children":[1,3,5,-1,-1,-1,7,-1,-1],"loss_changes":[8.107208E0,2.2297668E0,4.336673E0,0E0,0E0,0E0,4.3096013E0,0E0,0E0],"parents":[2147483647,0,0,1,1,2,2,6,6],"right_children":[2,4,6,-1,-1,-1,8,-1,-1],"split_conditions":[1E0,1E0,1E0,4.8983973E-3,7.629559E-3,3.4647186E-3,1E0,-3.3209007E-3,3.0190006E-3],"split_indices":[3,2,0,0,0,0,2,0,0],"split_type":[0,0,0,0,0,0,0,0,0],"sum_hessian":[4.4015375E2,3.5237433E2,8.777941E1,2.2919365E2,1.2318067E2,6.287295E1,2.490646E1,1.7331673E1,7.574787E0],"tree_param":{"num_deleted":"0","num_feature":"4","num_nodes":"9","size_leaf_vector":"1"}},{"base_weights":[5.190326E-1,6.173389E-1,9.073182E-2,5.1867757E-3,7.4686334E-3,-5.3164534E-2,3.6836683E-3,1.3906077E-3,-3.7501855E-3],"categories":[],"categories_nodes":[],"categories_segments":[],"categories_sizes":[],"default_left":[0,0,0,0,0,0,0,0,0],"id":31,"left_children":[1,3,5,-1,-1,7,-1,-1,-1],"loss_changes":[1.8146385E1,1.6433716E-1,4.2358813E0,0E0,0E0,5.0667458E0,0E0,0E0,0E0],"parents":[2147483647,0,0,1,1,2,2,5,5],"right_children":[2,4,6,-1,-1,8,-1,-1,-1],"split_conditions":[1E0,1E0,1E0,5.1867757E-3,7.4686334E-3,1E0,3.6836683E-3,1.3906077E-3,-3.7501855E-3],"split_indices":[3,2,2,0,0,0,0,0,0],"split_type":[0,0,0,0,0,0,0,0,0],"sum_hessian":[4.426945E2,3.5551367E2,8.718084E1,2.323972E2,1.2311646E2,6.1559258E1,2.5621582E1,4.1124058E1,2.04352E1],"tree_param":{"num_deleted":"0","num_feature":"4","num_nodes":"9","size_leaf_vector":"1"}},{"base_weights":[5.374777E-1,1.7751144E-1,7.1694845E-1,-1.643442E-1,6.4666164E-1,8.181251E-1,3.8062143E-1,-3.598613E-1,2.2651796E-1,7.161364E-3,9.836569E-2,3.4808165E-3,8.707987E-3,5.2350605E-1,-2.511795E-1,6.3621186E-2,-5.7205474E-3,2.7594084E-1,-0E0,3.275765E-3,-2.1513885E-1,5.623375E-3,-4.399494E-2,-0E0,-3.1106132E-1,-1.7791117E-3,2.2064091E-3,3.3497976E-3,-0E0,-8.0955384E-4,8.8051497E-4,-2.7775385E-3,8.317906E-6,-1.1368331E-3,2.2542434E-4,-4.0024324E-4,-3.8129457E-3],"categories":[],"categories_nodes":[],"categories_segments":[],"categories_sizes":[],"default_left":[0,0,0,0,0,0,0,0,0,0,0,0,0,0,0,0,0,0,0,0,0,0,0,0,0,0,0,0,0,0,0,0,0,0,0,0,0],"id":32,"left_children":[1,3,5,7,9,11,13,15,17,-1,19,-1,-1,21,23,25,-1,27,29,-1,31,-1,33,-1,35,-1,-1,-1,-1,-1,-1,-1,-1,-1,-1,-1,-1],"loss_changes":[2.7929932E1,2.8073338E1,6.5646515E0,8.822765E0,1.6690559E0,1.864563E0,9.548042E0,7.266011E0,4.7512293E-1,0E0,2.242053E0,0E0,0E0,2.2042294E0,4.7767937E-1,1.661943E0,0E0,5.0017977E-1,1.9019526E-1,0E0,3.2765287E-1,0E0,1.3325503E-1,0E0,1.1906624E-2,0E0,0E0,0E0,0E0,0E0,0E0,0E0,0E0,0E0,0E0,0E0,0E0],"parents":[2147483647,0,0,1,1,2,2,3,3,4,4,5,5,6,6,7,7,8,8,10,10,13,13,14,14,15,15,17,17,18,18,20,20,22,22,24,24],"right_children":[2,4,6,8,10,12,14,16,18,-1,20,-1,-1,22,24,26,-1,28,30,-1,32,-1,34,-1,36,-1,-1,-1,-1,-1,-1,-1,-1,-1,-1,-1,-1],"split_conditions":[5.2E1,1E0,1E0,4.8E1,1E0,5.5E1,1E0,3.3E1,1E0,7.161364E-3,4.1E1,3.4808165E-3,8.707987E-3,7.9E1,5.5E1,2.7E1,-5.7205474E-3,5.1E1,5.1E1,3.275765E-3,5.1E1,5.623375E-3,8.4E1,-0E0,6.2E1,-1.7791117E-3,2.2064091E-3,3.3497976E-3,-0E0,-8.0955384E-4,8.8051497E-4,-2.7775385E-3,8.317906E-6,-1.1368331E-3,2.2542434E-4,-4.0024324E-4,-3.8129457E-3],"split_indices":[1,0,0,1,3,1,3,1,3,0,1,0,0,1,1,1,0,1,1,0,1,0,1,0,1,0,0,0,0,0,0,0,0,0,0,0,0],"split_type":[0,0,0,0,0,0,0,0,0,0,0,0,0,0,0,0,0,0,0,0,0,0,0,0,0,0,0,0,0,0,0,0,0,0,0,0,0],"sum_hessian":[4.4895142E2,1.5691078E2,2.9204065E2,9.391151E1,6.299927E1,2.1234833E2,7.969231E1,6.3979862E1,2.993165E1,5.2388107E1,1.0611163E1,3.002144E1,1.8232689E2,6.703704E1,1.2655271E1,2.290763E1,4.107223E1,2.3148415E1,6.783235E0,6.791641E0,3.8195217E0,6.3653557E1,3.3834803E0,2.9462733E0,9.708998E0,7.2463174E0,1.5661313E1,1.6951E1,6.197414E0,4.556033E0,2.227202E0,2.538079E0,1.2814426E0,1.8621192E0,1.521361E0,6.6940203E0,3.0149772E0],"tree_param":{"num_deleted":"0","num_feature":"4","num_nodes":"37","size_leaf_vector":"1"}},{"base_weights":[5.458026E-1,1.5799382E-1,7.39989E-1,3.187467E-1,-4.526889E-1,7.497643E-3,-4.209268E-2,2.073031E-1,4.722346E-1,1.2149627E-1,-7.225251E-1,-1.8697946E-3,9.3850226E-4,2.2014887E-3,-0E0,-4.229954E-2,6.31537E-3,-5.445079E-4,2.0402882E-3,-9.080571E-3,4.6118483E-2,8.3613757E-4,-1.3220854E-3,8.810041E-4,-0E0],"categories":[],"categories_nodes":[],"categories_segments":[],"categories_sizes":[],"default_left":[0,0,0,0,0,0,0,0,0,0,0,0,0,0,0,0,0,0,0,0,0,0,0,0,0],"id":33,"left_children":[1,3,5,7,9,-1,11,13,15,17,19,-1,-1,-1,-1,21,-1,-1,-1,-1,23,-1,-1,-1,-1],"loss_changes":[3.2939316E1,1.7739166E1,2.979782E0,1.049777E0,7.0996346E0,0E0,4.6958128E-1,3.0263042E-1,4.539915E0,4.7901797E-1,4.847226E0,0E0,0E0,0E0,0E0,3.624363E-1,0E0,0E0,0E0,0E0,7.128242E-2,0E0,0E0,0E0,0E0],"parents":[2147483647,0,0,1,1,2,2,3,3,4,4,6,6,7,7,8,8,9,9,10,10,15,15,20,20],"right_children":[2,4,6,8,10,-1,12,14,16,18,20,-1,-1,-1,-1,22,-1,-1,-1,-1,24,-1,-1,-1,-1],"split_conditions":[5.2E1,1E0,8.7E1,1E0,3.6E1,7.497643E-3,9.1E1,5.1E1,3.6E1,2.6E1,5.1E1,-1.8697946E-3,9.3850226E-4,2.2014887E-3,-0E0,2.5E1,6.31537E-3,-5.445079E-4,2.0402882E-3,-9.080571E-3,1E0,8.3613757E-4,-1.3220854E-3,8.810041E-4,-0E0],"split_indices":[1,3,1,2,1,0,1,1,1,1,1,0,0,0,0,1,0,0,0,0,2,0,0,0,0],"split_type":[0,0,0,0,0,0,0,0,0,0,0,0,0,0,0,0,0,0,0,0,0,0,0,0,0],"sum_hessian":[4.4888596E2,1.5668407E2,2.9220187E2,1.2846648E2,2.8217587E1,2.8963425E2,2.5676236E0,8.993253E1,3.853394E1,1.0186383E1,1.8031202E1,1.2060144E0,1.3616091E0,8.485481E1,5.0777206E0,1.01041975E1,2.842974E1,2.4045446E0,7.781839E0,1.3588099E1,4.4431047E0,2.1842542E0,7.919943E0,3.1416955E0,1.3014092E0],"tree_param":{"num_deleted":"0","num_feature":"4","num_nodes":"25","size_leaf_vector":"1"}},{"base_weights":[5.272503E-1,8.279534E-2,7.182032E-1,2.71317E-1,-6.202228E-1,7.244524E-3,-0E0,3.4289163E-2,3.7470663E-3,2.276081E-2,-8.9759035E-3,-1.1156E-3,9.3745615E-4,3.0179338E-3,-4.103422E-3,-1.2747906E-1,1.9457798E-3,7.304939E-4,-2.557312E-3],"categories":[],"categories_nodes":[],"categories_segments":[],"categories_sizes":[],"default_left":[0,0,0,0,0,0,0,0,0,0,0,0,0,0,0,0,0,0,0],"id":34,"left_children":[1,3,5,7,9,-1,11,13,-1,15,-1,-1,-1,-1,-1,17,-1,-1,-1],"loss_changes":[3.698516E1,2.0934671E1,1.519867E0,2.6837177E0,6.612072E0,0E0,2.377961E-1,7.1148643E0,0E0,7.7976036E-1,0E0,0E0,0E0,0E0,0E0,6.583916E-1,0E0,0E0,0E0],"parents":[2147483647,0,0,1,1,2,2,3,3,4,4,6,6,7,7,9,9,15,15],"right_children":[2,4,6,8,10,-1,12,14,-1,16,-1,-1,-1,-1,-1,18,-1,-1,-1],"split_conditions":[5.1E1,1E0,8.7E1,3.6E1,3.6E1,7.244524E-3,9.1E1,3.3E1,3.7470663E-3,3.2E1,-8.9759035E-3,-1.1156E-3,9.3745615E-4,3.0179338E-3,-4.103422E-3,2.4E1,1.9457798E-3,7.304939E-4,-2.557312E-3],"split_indices":[1,3,1,1,1,0,1,1,0,1,0,0,0,0,0,1,0,0,0],"split_type":[0,0,0,0,0,0,0,0,0,0,0,0,0,0,0,0,0,0,0],"sum_hessian":[4.375117E2,1.365762E2,3.0093546E2,1.1309934E2,2.3476868E1,2.9849014E2,2.445342E0,3.986307E1,7.323627E1,9.298396E0,1.41784725E1,1.0846763E0,1.3606658E0,2.7596926E1,1.2266147E1,4.784883E0,4.513513E0,2.0247514E0,2.7601316E0],"tree_param":{"num_deleted":"0","num_feature":"4","num_nodes":"19","size_leaf_vector":"1"}},{"base_weights":[4.7921088E-1,4.3539214E-3,6.894096E-1,1.6228424E-1,-5.403837E-1,6.9554716E-1,-0E0,3.7393518E-2,3.5446554E-1,3.823257E-2,-8.29472E-3,4.4642884E-1,7.6486617E-3,-1.1144204E-3,9.3641144E-4,-2.7105384E-2,2.0437853E-3,-0E0,3.885821E-1,-1.7480554E-1,2.1528455E-3,2.2640632E-1,6.6485265E-3,1.7872568E-3,-1.4928421E-3,8.524592E-4,-1.2092846E-3,4.135045E-3,-0E0,-0E0,-2.0850392E-3,3.7496916E-3,6.5785064E-4],"categories":[],"categories_nodes":[],"categories_segments":[],"categories_sizes":[],"default_left":[0,0,0,0,0,0,0,0,0,0,0,0,0,0,0,0,0,0,0,0,0,0,0,0,0,0,0,0,0,0,0,0,0],"id":35,"left_children":[1,3,5,7,9,11,13,15,17,19,-1,21,-1,-1,-1,23,-1,25,27,29,-1,31,-1,-1,-1,-1,-1,-1,-1,-1,-1,-1,-1],"loss_changes":[4.3668556E1,1.3264845E1,1.4102783E0,2.5933843E0,6.4761944E0,1.2059021E0,2.3728462E-1,1.0761199E0,6.600666E-1,1.1683925E0,0E0,2.4449348E0,0E0,0E0,0E0,1.9897677E0,0E0,2.4975148E-1,3.8303518E-1,9.753403E-2,0E0,1.0093598E0,0E0,0E0,0E0,0E0,0E0,0E0,0E0,0E0,0E0,0E0,0E0],"parents":[2147483647,0,0,1,1,2,2,3,3,4,4,5,5,6,6,7,7,8,8,9,9,11,11,15,15,17,17,18,18,19,19,21,21],"right_children":[2,4,6,8,10,12,14,16,18,20,-1,22,-1,-1,-1,24,-1,26,28,30,-1,32,-1,-1,-1,-1,-1,-1,-1,-1,-1,-1,-1],"split_conditions":[5.1E1,1E0,8.7E1,1E0,3.6E1,5.7E1,9.1E1,4.7E1,2.8E1,3.1E1,-8.29472E-3,1E0,7.6486617E-3,-1.1144204E-3,9.3641144E-4,3.2E1,2.0437853E-3,2.4E1,5E1,2.4E1,2.1528455E-3,5.3E1,6.6485265E-3,1.7872568E-3,-1.4928421E-3,8.524592E-4,-1.2092846E-3,4.135045E-3,-0E0,-0E0,-2.0850392E-3,3.7496916E-3,6.5785064E-4],"split_indices":[1,3,1,2,1,1,1,1,1,1,0,2,0,0,0,1,0,1,1,1,0,1,0,0,0,0,0,0,0,0,0,0,0],"split_type":[0,0,0,0,0,0,0,0,0,0,0,0,0,0,0,0,0,0,0,0,0,0,0,0,0,0,0,0,0,0,0,0,0],"sum_hessian":[4.3127374E2,1.3619145E2,2.950823E2,1.1173576E2,2.4455685E1,2.9263702E2,2.4452684E0,7.654183E1,3.5193935E1,1.046256E1,1.3993124E1,8.146903E1,2.11168E2,1.0855448E0,1.3597234E0,5.909756E1,1.7444267E1,3.2160437E0,3.1977892E1,3.524523E0,6.938037E0,5.187198E1,2.9597054E1,1.8764683E1,4.033288E1,2.1999407E0,1.016103E0,2.9310423E1,2.66747E0,1.7748818E0,1.7496412E0,1.8397657E1,3.3474323E1],"tree_param":{"num_deleted":"0","num_feature":"4","num_nodes":"33","size_leaf_vector":"1"}},{"base_weights":[5.1615226E-1,5.884996E-1,1.9026278E-1,4.9087093E-3,7.2457073E-3,3.1950122E-3,-1.08513474E-1,-3.3876516E-3,2.9309492E-3],"categories":[],"categories_nodes":[],"categories_segments":[],"categories_sizes":[],"default_left":[0,0,0,0,0,0,0,0,0],"id":36,"left_children":[1,3,5,-1,-1,-1,7,-1,-1],"loss_changes":[8.874672E0,5.4320526E-1,4.1607327E0,0E0,0E0,0E0,4.279645E0,0E0,0E0],"parents":[2147483647,0,0,1,1,2,2,6,6],"right_children":[2,4,6,-1,-1,-1,8,-1,-1],"split_conditions":[1E0,1E0,1E0,4.9087093E-3,7.2457073E-3,3.1950122E-3,1E0,-3.3876516E-3,2.9309492E-3],"split_indices":[3,2,0,0,0,0,2,0,0],"split_type":[0,0,0,0,0,0,0,0,0],"sum_hessian":[4.3041425E2,3.4437143E2,8.604281E1,2.2947572E2,1.148957E2,6.0746277E1,2.5296534E1,1.7864292E1,7.432242E0],"tree_param":{"num_deleted":"0","num_feature":"4","num_nodes":"9","size_leaf_vector":"1"}},{"base_weights":[5.1564944E-1,6.0298544E-1,1.3671874E-1,5.089204E-3,7.3311403E-3,3.14373E-3,-2.4528043E-1,-4.646753E-3,2.5681357E-3],"categories":[],"categories_nodes":[],"categories_segments":[],"categories_sizes":[],"default_left":[0,0,0,0,0,0,0,0,0],"id":37,"left_children":[1,3,5,-1,-1,-1,7,-1,-1],"loss_changes":[1.3802811E1,1.06933594E-1,7.5164075E0,0E0,0E0,0E0,5.2754636E0,0E0,0E0],"parents":[2147483647,0,0,1,1,2,2,6,6],"right_children":[2,4,6,-1,-1,-1,8,-1,-1],"split_conditions":[1E0,1E0,1E0,5.089204E-3,7.3311403E-3,3.14373E-3,1E0,-4.646753E-3,2.5681357E-3],"split_indices":[3,2,0,0,0,0,2,0,0],"split_type":[0,0,0,0,0,0,0,0,0],"sum_hessian":[4.4316144E2,3.5427563E2,8.88858E1,2.3636658E2,1.1790906E2,6.2772E1,2.6113806E1,1.93846E1,6.7292075E0],"tree_param":{"num_deleted":"0","num_feature":"4","num_nodes":"9","size_leaf_vector":"1"}},{"base_weights":[5.174884E-1,9.514998E-2,7.3312885E-1,-2.1445379E-1,5.007084E-1,8.4614396E-1,3.8475582E-1,-3.9536867E-1,1.776729E-3,5.7105003E-3,-0E0,2.97522E-1,9.067711E-3,4.1451533E-3,-2.3625087E-2,1.7301891E-2,-5.893083E-1,-1.6664913E-1,1.6947017E-3,4.269344E-2,4.3810587E-3,-7.851395E-2,1.5672244E-4,-1.0974173E-3,1.1472524E-3,-7.755634E-3,-1.6640939E-4,-2.4000504E-3,1.3484558E-4,3.142217E-3,-1.9927474E-3,-0E0,-1.1506998E-3],"categories":[],"categories_nodes":[],"categories_segments":[],"categories_sizes":[],"default_left":[0,0,0,0,0,0,0,0,0,0,0,0,0,0,0,0,0,0,0,0,0,0,0,0,0,0,0,0,0,0,0,0,0],"id":38,"left_children":[1,3,5,7,9,11,13,15,-1,-1,17,19,-1,-1,21,23,25,27,-1,29,-1,31,-1,-1,-1,-1,-1,-1,-1,-1,-1,-1,-1],"loss_changes":[3.9181625E1,2.1535206E1,7.5706635E0,7.768338E0,2.3189316E0,3.6850128E0,1.3945351E0,6.0766745E0,0E0,0E0,8.469176E-1,8.838086E-1,0E0,0E0,7.494554E-2,5.196969E-1,4.750778E0,3.259075E-1,0E0,2.3496578E0,0E0,6.622583E-2,0E0,0E0,0E0,0E0,0E0,0E0,0E0,0E0,0E0,0E0,0E0],"parents":[2147483647,0,0,1,1,2,2,3,3,4,4,5,5,6,6,7,7,10,10,11,11,14,14,15,15,16,16,17,17,19,19,21,21],"right_children":[2,4,6,8,10,12,14,16,-1,-1,18,20,-1,-1,22,24,26,28,-1,30,-1,32,-1,-1,-1,-1,-1,-1,-1,-1,-1,-1,-1],"split_conditions":[5.2E1,1E0,1E0,4.8E1,4.9E1,5.5E1,7.7E1,3.3E1,1.776729E-3,5.7105003E-3,5E1,1E0,9.067711E-3,4.1451533E-3,1E0,2.7E1,1E0,1E0,1.6947017E-3,5.3E1,4.3810587E-3,8.2E1,1.5672244E-4,-1.0974173E-3,1.1472524E-3,-7.755634E-3,-1.6640939E-4,-2.4000504E-3,1.3484558E-4,3.142217E-3,-1.9927474E-3,-0E0,-1.1506998E-3],"split_indices":[1,0,0,1,1,1,1,1,0,0,1,2,0,0,2,1,2,2,0,1,0,1,0,0,0,0,0,0,0,0,0,0,0],"split_type":[0,0,0,0,0,0,0,0,0,0,0,0,0,0,0,0,0,0,0,0,0,0,0,0,0,0,0,0,0,0,0,0,0],"sum_hessian":[4.3242792E2,1.5181825E2,2.8060968E2,8.806704E1,6.375121E1,2.0000325E2,8.060642E1,6.107937E1,2.698767E1,5.381213E1,9.939079E0,2.6601786E1,1.7340146E2,7.613262E1,4.4738064E0,2.1615347E1,3.9464024E1,3.6435149E0,6.295564E0,1.5357522E1,1.1244264E1,3.0115077E0,1.4622984E0,6.6052284E0,1.50101185E1,2.6446442E1,1.3017581E1,2.1997201E0,1.4437947E0,6.803351E0,8.554171E0,1.95242E0,1.0590879E0],"tree_param":{"num_deleted":"0","num_feature":"4","num_nodes":"33","size_leaf_vector":"1"}},{"base_weights":[5.209353E-1,1.8819603E-1,6.915506E-1,2.8713053E-1,-1.7324437E-1,7.5637525E-1,3.640882E-1,1.9151628E-1,4.2939223E-3,1.2101247E-1,-3.3025998E-1,3.087006E-1,7.935328E-3,4.2341262E-1,-1.8426116E-3,2.6514414E-1,-1.2634838E-1,-6.0804974E-4,1.9533597E-3,-4.1109277E-3,1.7391523E-2,3.8526066E-2,4.561056E-3,1.4324246E-1,4.9562836E-1,3.795095E-3,1.4125797E-3,-2.4119518E-3,5.959851E-4,5.973358E-4,-1.7436512E-5,1.4555547E-3,-4.8118754E-4,-5.931811E-4,3.6036503E-3,5.021273E-3,-0E0],"categories":[],"categories_nodes":[],"categories_segments":[],"categories_sizes":[],"default_left":[0,0,0,0,0,0,0,0,0,0,0,0,0,0,0,0,0,0,0,0,0,0,0,0,0,0,0,0,0,0,0,0,0,0,0,0,0],"id":39,"left_children":[1,3,5,7,9,11,13,15,-1,17,19,21,-1,23,-1,25,27,-1,-1,-1,29,31,-1,33,35,-1,-1,-1,-1,-1,-1,-1,-1,-1,-1,-1,-1],"loss_changes":[2.3064583E1,6.3773584E0,2.716919E0,6.7213726E-1,2.359099E0,7.687378E-1,3.0957203E0,2.7333317E0,0E0,4.5871785E-1,1.1104553E0,9.6150947E-1,0E0,2.8107738E-1,0E0,4.120922E-1,7.515724E-1,0E0,0E0,0E0,4.1444726E-2,3.449601E-1,0E0,1.6290445E0,2.2764206E-2,0E0,0E0,0E0,0E0,0E0,0E0,0E0,0E0,0E0,0E0,0E0,0E0],"parents":[2147483647,0,0,1,1,2,2,3,3,4,4,5,5,6,6,7,7,9,9,10,10,11,11,13,13,15,15,16,16,20,20,21,21,23,23,24,24],"right_children":[2,4,6,8,10,12,14,16,-1,18,20,22,-1,24,-1,26,28,-1,-1,-1,30,32,-1,34,36,-1,-1,-1,-1,-1,-1,-1,-1,-1,-1,-1,-1],"split_conditions":[5.2E1,1E0,1E0,4.8E1,3.6E1,5.5E1,7.5E1,4.4E1,4.2939223E-3,2.6E1,5.1E1,1E0,7.935328E-3,5.7E1,-1.8426116E-3,3.2E1,1E0,-6.0804974E-4,1.9533597E-3,-4.1109277E-3,1E0,5.3E1,4.561056E-3,1E0,7.3E1,3.795095E-3,1.4125797E-3,-2.4119518E-3,5.959851E-4,5.973358E-4,-1.7436512E-5,1.4555547E-3,-4.8118754E-4,-5.931811E-4,3.6036503E-3,5.021273E-3,-0E0],"split_indices":[1,3,3,1,1,1,1,1,0,1,1,2,0,1,0,1,2,0,0,0,2,1,0,2,1,0,0,0,0,0,0,0,0,0,0,0,0],"split_type":[0,0,0,0,0,0,0,0,0,0,0,0,0,0,0,0,0,0,0,0,0,0,0,0,0,0,0,0,0,0,0,0,0,0,0,0,0],"sum_hessian":[4.2695172E2,1.5283983E2,2.7411188E2,1.2269476E2,3.0145067E1,2.1660722E2,5.7504658E1,8.951113E1,3.3183628E1,1.0178503E1,1.9966564E1,2.4765644E1,1.9184158E2,5.4769535E1,2.7351236E0,7.530062E1,1.4210509E1,1.529187E0,8.649316E0,1.5886216E1,4.0803485E0,1.4392206E1,1.0373439E1,1.8757292E1,3.6012245E1,2.63271E1,4.8973522E1,8.610276E0,5.6002336E0,2.7993145E0,1.281034E0,5.9786143E0,8.413592E0,1.2272773E1,6.484519E0,3.4919174E1,1.0930693E0],"tree_param":{"num_deleted":"0","num_feature":"4","num_nodes":"37","size_leaf_vector":"1"}},{"base_weights":[4.85195E-1,5.691487E-1,1.0963216E-1,4.7268975E-3,7.076289E-3,2.575286E-3,-1.931107E-1,-4.79683E-3,3.7864717E-3],"categories":[],"categories_nodes":[],"categories_segments":[],"categories_sizes":[],"default_left":[0,0,0,0,0,0,0,0,0],"id":40,"left_children":[1,3,5,-1,-1,-1,7,-1,-1],"loss_changes":[1.2854012E1,8.0280304E-1,4.717681E0,0E0,0E0,0E0,7.6513686E0,0E0,0E0],"parents":[2147483647,0,0,1,1,2,2,6,6],"right_children":[2,4,6,-1,-1,-1,8,-1,-1],"split_conditions":[1E0,1E0,1E0,4.7268975E-3,7.076289E-3,2.575286E-3,1E0,-4.79683E-3,3.7864717E-3],"split_indices":[3,2,0,0,0,0,2,0,0],"split_type":[0,0,0,0,0,0,0,0,0],"sum_hessian":[4.2823083E2,3.446921E2,8.35387E1,2.3131409E2,1.1337803E2,5.8234795E1,2.5303902E1,1.8510887E1,6.793014E0],"tree_param":{"num_deleted":"0","num_feature":"4","num_nodes":"9","size_leaf_vector":"1"}},{"base_weights":[5.089385E-1,5.9309185E-1,1.3831605E-1,4.7723767E-3,7.5589954E-3,3.200358E-3,-2.7529275E-1,-5.431854E-3,2.7119042E-3],"categories":[],"categories_nodes":[],"categories_segments":[],"categories_sizes":[],"default_left":[0,0,0,0,0,0,0,0,0],"id":41,"left_children":[1,3,5,-1,-1,-1,7,-1,-1],"loss_changes":[1.23239975E1,2.356369E0,7.99073E0,0E0,0E0,0E0,6.486911E0,0E0,0E0],"parents":[2147483647,0,0,1,1,2,2,6,6],"right_children":[2,4,6,-1,-1,-1,8,-1,-1],"split_conditions":[1E0,1E0,1E0,4.7723767E-3,7.5589954E-3,3.200358E-3,1E0,-5.431854E-3,2.7119042E-3],"split_indices":[3,2,0,0,0,0,2,0,0],"split_type":[0,0,0,0,0,0,0,0,0],"sum_hessian":[4.231654E2,3.388701E2,8.429534E1,2.2274701E2,1.1612307E2,6.097645E1,2.331889E1,1.6302496E1,7.016393E0],"tree_param":{"num_deleted":"0","num_feature":"4","num_nodes":"9","size_leaf_vector":"1"}},{"base_weights":[4.8090222E-1,5.66825E-1,1.0368435E-1,4.411969E-3,7.4961195E-3,2.651943E-3,-2.2815429E-1,-4.656604E-3,2.6975018E-3],"categories":[],"categories_nodes":[],"categories_segments":[],"categories_sizes":[],"default_left":[0,0,0,0,0,0,0,0,0],"id":42,"left_children":[1,3,5,-1,-1,-1,7,-1,-1],"loss_changes":[1.3164093E1,4.1500244E0,5.658938E0,0E0,0E0,0E0,5.5071263E0,0E0,0E0],"parents":[2147483647,0,0,1,1,2,2,6,6],"right_children":[2,4,6,-1,-1,-1,8,-1,-1],"split_conditions":[1E0,1E0,1E0,4.411969E-3,7.4961195E-3,2.651943E-3,1E0,-4.656604E-3,2.6975018E-3],"split_indices":[3,2,0,0,0,0,2,0,0],"split_type":[0,0,0,0,0,0,0,0,0],"sum_hessian":[4.2462997E2,3.4067825E2,8.395172E1,2.2376138E2,1.1691687E2,5.883237E1,2.511935E1,1.812522E1,6.9941306E0],"tree_param":{"num_deleted":"0","num_feature":"4","num_nodes":"9","size_leaf_vector":"1"}},{"base_weights":[4.9995646E-1,5.746831E-3,1.8288887E-1,2.9129023E-3,-7.2893575E-2,-2.5821002E-3,2.861758E-3],"categories":[],"categories_nodes":[],"categories_segments":[],"categories_sizes":[],"default_left":[0,0,0,0,0,0,0],"id":43,"left_children":[1,-1,3,-1,5,-1,-1],"loss_changes":[8.956871E0,0E0,3.081933E0,0E0,3.1376712E0,0E0,0E0],"parents":[2147483647,0,0,2,2,4,4],"right_children":[2,-1,4,-1,6,-1,-1],"split_conditions":[1E0,5.746831E-3,1E0,2.9129023E-3,1E0,-2.5821002E-3,2.861758E-3],"split_indices":[3,0,0,0,2,0,0],"split_type":[0,0,0,0,0,0,0],"sum_hessian":[4.2837906E2,3.3882315E2,8.955591E1,6.3297024E1,2.6258886E1,2.0091183E1,6.167703E0],"tree_param":{"num_deleted":"0","num_feature":"4","num_nodes":"7","size_leaf_vector":"1"}},{"base_weights":[4.934788E-1,1.21228725E-1,6.868553E-1,-2.2423548E-1,5.71444E-1,8.194336E-3,2.982709E-1,-4.351132E-1,1.6332006E-1,6.8346155E-3,-0E0,4.2901373E-1,-2.3682621E-1,3.9703634E-2,-6.2863682E-3,-0E0,2.1087138E-3,1.7786641E-1,-2.2400783E-3,4.8921076E-3,-1.5511859E-3,4.8945844E-4,-3.4107135E-3,-1.191197E-3,1.6731482E-3,2.0112818E-4,-5.8683817E-4,-0E0,2.2120092E-3],"categories":[],"categories_nodes":[],"categories_segments":[],"categories_sizes":[],"default_left":[0,0,0,0,0,0,0,0,0,0,0,0,0,0,0,0,0,0,0,0,0,0,0,0,0,0,0,0,0],"id":44,"left_children":[1,3,5,7,9,-1,11,13,15,-1,17,19,21,23,-1,25,-1,27,-1,-1,-1,-1,-1,-1,-1,-1,-1,-1,-1],"loss_changes":[2.9608093E1,2.6265715E1,1.1369095E1,8.758833E0,4.764744E0,0E0,7.244129E0,6.63286E0,3.9034343E-1,0E0,1.2696911E0,3.5542393E0,9.9529326E-1,7.8775185E-1,0E0,4.6192326E-2,0E0,1.836999E-1,0E0,0E0,0E0,0E0,0E0,0E0,0E0,0E0,0E0,0E0,0E0],"parents":[2147483647,0,0,1,1,2,2,3,3,4,4,6,6,7,7,8,8,10,10,11,11,12,12,13,13,15,15,17,17],"right_children":[2,4,6,8,10,-1,12,14,16,-1,18,20,22,24,-1,26,-1,28,-1,-1,-1,-1,-1,-1,-1,-1,-1,-1,-1],"split_conditions":[5.2E1,1E0,1E0,4.7E1,1E0,8.194336E-3,1E0,3.2E1,4.9E1,6.8346155E-3,4E1,7.8E1,5.5E1,2.7E1,-6.2863682E-3,1E0,2.1087138E-3,3.2E1,-2.2400783E-3,4.8921076E-3,-1.5511859E-3,4.8945844E-4,-3.4107135E-3,-1.191197E-3,1.6731482E-3,2.0112818E-4,-5.8683817E-4,-0E0,2.2120092E-3],"split_indices":[1,0,0,1,3,0,3,1,1,0,1,1,1,1,0,3,0,1,0,0,0,0,0,0,0,0,0,0,0],"split_type":[0,0,0,0,0,0,0,0,0,0,0,0,0,0,0,0,0,0,0,0,0,0,0,0,0,0,0,0,0],"sum_hessian":[4.184928E2,1.4952045E2,2.6897235E2,8.681409E1,6.2706364E1,1.9132214E2,7.765021E1,5.626309E1,3.0550997E1,5.1026917E1,1.1679448E1,6.474715E1,1.290306E1,1.7844854E1,3.8418232E1,7.448098E0,2.3102898E1,7.255413E0,4.424035E0,6.094727E1,3.799874E0,3.5846486E0,9.318411E0,6.5010257E0,1.1343828E1,5.9029164E0,1.5451818E0,2.3442678E0,4.911145E0],"tree_param":{"num_deleted":"0","num_feature":"4","num_nodes":"29","size_leaf_vector":"1"}},{"base_weights":[4.8829144E-1,9.859464E-2,6.9344616E-1,2.1926965E-1,-3.301344E-1,7.0474625E-1,-1.1739185E-3,-0E0,3.2838136E-3,9.7853824E-2,-5.2587116E-1,4.4177616E-1,7.629004E-3,2.473847E-1,-4.8030205E-3,-9.5021015E-4,2.0144684E-3,-6.672236E-3,4.399631E-4,1.6520014E-1,6.9112144E-3,2.7806954E-3,2.2654157E-4,2.2103323E-3,-4.8053998E-4],"categories":[],"categories_nodes":[],"categories_segments":[],"categories_sizes":[],"default_left":[0,0,0,0,0,0,0,0,0,0,0,0,0,0,0,0,0,0,0,0,0,0,0,0,0],"id":45,"left_children":[1,3,5,7,9,11,-1,13,-1,15,17,19,-1,21,-1,-1,-1,-1,-1,23,-1,-1,-1,-1,-1],"loss_changes":[3.3544807E1,9.042732E0,3.6977386E0,3.3137484E0,3.965053E0,3.000641E-1,0E0,7.586748E0,0E0,6.3931406E-1,2.931531E0,3.6651735E0,0E0,7.018924E-2,0E0,0E0,0E0,0E0,0E0,7.8901696E-1,0E0,0E0,0E0,0E0,0E0],"parents":[2147483647,0,0,1,1,2,2,3,3,4,4,5,5,7,7,9,9,10,10,11,11,13,13,19,19],"right_children":[2,4,6,8,10,12,-1,14,-1,16,18,20,-1,22,-1,-1,-1,-1,-1,24,-1,-1,-1,-1,-1],"split_conditions":[5.2E1,1E0,8.7E1,3.6E1,3.6E1,5.7E1,-1.1739185E-3,3.3E1,3.2838136E-3,2.6E1,5.1E1,1E0,7.629004E-3,1E0,-4.8030205E-3,-9.5021015E-4,2.0144684E-3,-6.672236E-3,4.399631E-4,5.6E1,6.9112144E-3,2.7806954E-3,2.2654157E-4,2.2103323E-3,-4.8053998E-4],"split_indices":[1,3,1,1,1,1,0,1,0,1,1,2,0,2,0,0,0,0,0,1,0,0,0,0,0],"split_type":[0,0,0,0,0,0,0,0,0,0,0,0,0,0,0,0,0,0,0,0,0,0,0,0,0],"sum_hessian":[4.2308737E2,1.5186288E2,2.712245E2,1.2322921E2,2.863368E1,2.6939517E2,1.8293061E0,4.3097424E1,8.013178E1,9.753485E0,1.8880196E1,6.591138E1,2.0348381E2,3.1118444E1,1.1978981E1,2.0107174E0,7.742768E0,1.4461977E1,4.418218E0,4.008232E1,2.5829058E1,2.3334047E1,7.784396E0,3.3334656E1,6.747666E0],"tree_param":{"num_deleted":"0","num_feature":"4","num_nodes":"25","size_leaf_vector":"1"}},{"base_weights":[4.948634E-1,1.6957048E-2,6.5672857E-1,-4.0111867E-1,5.6056523E-1,7.602882E-1,3.6307248E-1,7.280668E-2,-6.392131E-3,6.4905626E-3,5.4017536E-2,2.1994732E-1,8.231495E-3,4.7773606E-1,-1.3463065E-1,-6.694741E-2,1.5205316E-1,1.8307149E-3,-1.6157752E-3,3.117534E-1,-5.660048E-2,5.2940836E-3,-1.2710282E-3,9.45563E-2,-2.574527E-1,7.4162317E-4,-2.1064393E-3,1.6549522E-3,-0E0,3.5783115E-3,9.372209E-5,-2.0191772E-3,1.1118891E-3,-0E0,1.2071662E-3,-2.948422E-3,-0E0],"categories":[],"categories_nodes":[],"categories_segments":[],"categories_sizes":[],"default_left":[0,0,0,0,0,0,0,0,0,0,0,0,0,0,0,0,0,0,0,0,0,0,0,0,0,0,0,0,0,0,0,0,0,0,0,0,0],"id":46,"left_children":[1,3,5,7,9,11,13,15,-1,-1,17,19,-1,21,23,25,27,-1,-1,29,31,-1,-1,33,35,-1,-1,-1,-1,-1,-1,-1,-1,-1,-1,-1,-1],"loss_changes":[3.2338303E1,2.9209524E1,6.2743073E0,8.892011E0,1.8130264E0,5.2387085E0,6.673915E0,5.032664E-1,0E0,0E0,8.655935E-1,1.2612637E0,0E0,3.5762177E0,1.0626619E0,5.567362E-1,6.561017E-2,0E0,0E0,2.1757483E-1,6.722592E-1,0E0,0E0,6.289382E-2,2.1205854E-1,0E0,0E0,0E0,0E0,0E0,0E0,0E0,0E0,0E0,0E0,0E0,0E0],"parents":[2147483647,0,0,1,1,2,2,3,3,4,4,5,5,6,6,7,7,10,10,11,11,13,13,14,14,15,15,16,16,19,19,20,20,23,23,24,24],"right_children":[2,4,6,8,10,12,14,16,-1,-1,18,20,-1,22,24,26,28,-1,-1,30,32,-1,-1,34,36,-1,-1,-1,-1,-1,-1,-1,-1,-1,-1,-1,-1],"split_conditions":[4.8E1,1E0,1E0,3.3E1,4.2E1,5.2E1,1E0,2.6E1,-6.392131E-3,6.4905626E-3,1E0,1E0,8.231495E-3,7.8E1,5.4E1,2.4E1,3.2E1,1.8307149E-3,-1.6157752E-3,5.1E1,5.1E1,5.2940836E-3,-1.2710282E-3,5.1E1,6.4E1,7.4162317E-4,-2.1064393E-3,1.6549522E-3,-0E0,3.5783115E-3,9.372209E-5,-2.0191772E-3,1.1118891E-3,-0E0,1.2071662E-3,-2.948422E-3,-0E0],"split_indices":[1,0,0,1,1,1,3,1,0,0,3,3,0,1,1,1,1,0,0,1,1,0,0,1,1,0,0,0,0,0,0,0,0,0,0,0,0],"split_type":[0,0,0,0,0,0,0,0,0,0,0,0,0,0,0,0,0,0,0,0,0,0,0,0,0,0,0,0,0,0,0,0,0,0,0,0,0],"sum_hessian":[4.1383704E2,1.0827933E2,3.055577E2,6.2168476E1,4.611085E1,2.1288828E2,9.2669426E1,2.2407871E1,3.9760605E1,3.6018257E1,1.0092593E1,2.7703024E1,1.8518526E2,7.645995E1,1.6209467E1,6.386905E0,1.6020966E1,8.707841E0,1.3847522E0,2.1200142E1,6.502882E0,7.235255E1,4.1074095E0,5.038329E0,1.1171138E1,3.908334E0,2.4785712E0,1.4361141E1,1.6598248E0,1.5370604E1,5.8295383E0,3.9917116E0,2.5111704E0,1.4957033E0,3.5426254E0,8.581455E0,2.5896826E0],"tree_param":{"num_deleted":"0","num_feature":"4","num_nodes":"37","size_leaf_vector":"1"}},{"base_weights":[4.5141512E-1,-6.3821794E-3,6.475793E-1,1.5216956E-1,-5.601145E-1,3.7487328E-1,7.40435E-1,3.3672046E-4,2.3125336E-1,-2.2983221E-2,-7.665064E-3,2.0020625E-1,5.6435037E-1,7.463185E-3,-0E0,1.6356838E-1,-2.764832E-3,9.960962E-2,3.7198088E-3,-1.22110255E-1,8.5940515E-4,3.2430699E-3,-1.610934E-2,-6.0392916E-4,6.335019E-3,2.2706357E-3,-0E0,2.0744966E-3,-7.179284E-4,-2.3226072E-3,4.332969E-4,1.0989085E-3,-2.3589677E-3],"categories":[],"categories_nodes":[],"categories_segments":[],"categories_sizes":[],"default_left":[0,0,0,0,0,0,0,0,0,0,0,0,0,0,0,0,0,0,0,0,0,0,0,0,0,0,0,0,0,0,0,0,0],"id":47,"left_children":[1,3,5,7,9,11,13,15,17,19,-1,21,23,-1,-1,25,-1,27,-1,29,-1,-1,31,-1,-1,-1,-1,-1,-1,-1,-1,-1,-1],"loss_changes":[3.8785126E1,1.3126352E1,4.272949E0,1.2527499E0,3.1363173E0,1.7285995E0,8.137207E-1,2.7109036E0,7.4242115E-1,3.4182644E-1,0E0,2.0270455E0,2.4014702E0,0E0,0E0,3.9517224E-1,0E0,1.1984224E0,0E0,5.075097E-1,0E0,0E0,1.230107E0,0E0,0E0,0E0,0E0,0E0,0E0,0E0,0E0,0E0,0E0],"parents":[2147483647,0,0,1,1,2,2,3,3,4,4,5,5,6,6,7,7,8,8,9,9,11,11,12,12,15,15,17,17,19,19,22,22],"right_children":[2,4,6,8,10,12,14,16,18,20,-1,22,24,-1,-1,26,-1,28,-1,30,-1,-1,32,-1,-1,-1,-1,-1,-1,-1,-1,-1,-1],"split_conditions":[5E1,1E0,5.7E1,3.6E1,3.6E1,1E0,8.7E1,3.3E1,1E0,1E0,-7.665064E-3,5.4E1,5.1E1,7.463185E-3,-0E0,2.9E1,-2.764832E-3,4.5E1,3.7198088E-3,3.2E1,8.5940515E-4,3.2430699E-3,1E0,-6.0392916E-4,6.335019E-3,2.2706357E-3,-0E0,2.0744966E-3,-7.179284E-4,-2.3226072E-3,4.332969E-4,1.0989085E-3,-2.3589677E-3],"split_indices":[1,3,1,1,1,2,1,1,2,2,0,1,1,0,0,1,0,1,0,1,0,0,3,0,0,0,0,0,0,0,0,0,0],"split_type":[0,0,0,0,0,0,0,0,0,0,0,0,0,0,0,0,0,0,0,0,0,0,0,0,0,0,0,0,0,0,0,0,0],"sum_hessian":[4.1785892E2,1.2747965E2,2.9037927E2,1.0403887E2,2.3440779E1,8.7921265E1,2.02458E2,4.1235638E1,6.2803238E1,1.0264292E1,1.3176486E1,5.7822987E1,3.009828E1,2.0058232E2,1.8756717E0,2.9649618E1,1.15860195E1,4.3108494E1,1.9694742E1,7.143256E0,3.121036E0,3.5039738E1,2.2783247E1,2.405163E0,2.7693117E1,1.8239775E1,1.1409843E1,2.6960186E1,1.6148308E1,3.6778212E0,3.465435E0,1.6213528E1,6.5697193E0],"tree_param":{"num_deleted":"0","num_feature":"4","num_nodes":"33","size_leaf_vector":"1"}},{"base_weights":[4.8172274E-1,5.580382E-1,1.4295813E-1,4.470366E-3,7.2279223E-3,2.9178932E-3,-1.856957E-1,-3.8745978E-3,2.623167E-3],"categories":[],"categories_nodes":[],"categories_segments":[],"categories_sizes":[],"default_left":[0,0,0,0,0,0,0,0,0],"id":48,"left_children":[1,3,5,-1,-1,-1,7,-1,-1],"loss_changes":[9.847099E0,2.4468307E0,5.136244E0,0E0,0E0,0E0,4.1525745E0,0E0,0E0],"parents":[2147483647,0,0,1,1,2,2,6,6],"right_children":[2,4,6,-1,-1,-1,8,-1,-1],"split_conditions":[1E0,1E0,1E0,4.470366E-3,7.2279223E-3,2.9178932E-3,1E0,-3.8745978E-3,2.623167E-3],"split_indices":[3,2,0,0,0,0,2,0,0],"split_type":[0,0,0,0,0,0,0,0,0],"sum_hessian":[4.1530368E2,3.324599E2,8.28438E1,2.2263205E2,1.0982784E2,5.884075E1,2.4003052E1,1.8251184E1,5.7518663E0],"tree_param":{"num_deleted":"0","num_feature":"4","num_nodes":"9","size_leaf_vector":"1"}},{"base_weights":[4.5517027E-1,3.517439E-2,6.7561555E-1,2.0145796E-1,-4.9872705E-1,6.7911046E-3,2.940678E-5,2.0624878E-2,2.721727E-1,-0E0,-6.7129594E-1,3.1422922E-1,-5.2215667E-3,1.5087397E-1,4.0931326E-1,-4.5813866E-2,9.184924E-4,-7.96187E-3,5.3216987E-3,4.1931034E-3,2.8624348E-4,1.8711851E-4,2.3667968E-3,4.495E-3,-0E0,-1.7192058E-3,7.4547564E-4,4.9061154E-4,-4.3205837E-5],"categories":[],"categories_nodes":[],"categories_segments":[],"categories_sizes":[],"default_left":[0,0,0,0,0,0,0,0,0,0,0,0,0,0,0,0,0,0,0,0,0,0,0,0,0,0,0,0,0],"id":49,"left_children":[1,3,5,7,9,-1,-1,11,13,15,17,19,-1,21,23,25,-1,-1,27,-1,-1,-1,-1,-1,-1,-1,-1,-1,-1],"loss_changes":[3.8625793E1,1.4806324E1,2.8894806E-1,1.4298506E0,3.6189766E0,0E0,0E0,9.296754E0,5.822158E-1,1.3996562E-1,2.9578466E0,8.0968666E-1,0E0,5.6490123E-1,3.9493036E-1,4.4088325E-1,0E0,0E0,3.0376185E-2,0E0,0E0,0E0,0E0,0E0,0E0,0E0,0E0,0E0,0E0],"parents":[2147483647,0,0,1,1,2,2,3,3,4,4,7,7,8,8,9,9,10,10,11,11,13,13,14,14,15,15,18,18],"right_children":[2,4,6,8,10,-1,-1,12,14,16,18,20,-1,22,24,26,-1,-1,28,-1,-1,-1,-1,-1,-1,-1,-1,-1,-1],"split_conditions":[5.2E1,1E0,8.7E1,3.6E1,3.6E1,6.7911046E-3,2.940678E-5,3.3E1,1E0,1E0,5.1E1,2.9E1,-5.2215667E-3,4.6E1,5E1,3.2E1,9.184924E-4,-7.96187E-3,1E0,4.1931034E-3,2.8624348E-4,1.8711851E-4,2.3667968E-3,4.495E-3,-0E0,-1.7192058E-3,7.4547564E-4,4.9061154E-4,-4.3205837E-5],"split_indices":[1,3,1,1,1,0,0,1,2,2,1,1,0,1,1,1,0,0,2,0,0,0,0,0,0,0,0,0,0],"split_type":[0,0,0,0,0,0,0,0,0,0,0,0,0,0,0,0,0,0,0,0,0,0,0,0,0,0,0,0,0],"sum_hessian":[4.1359317E2,1.471343E2,2.664589E2,1.1765411E2,2.9480185E1,2.64247E2,2.2118785E0,3.8693535E1,7.896058E1,9.658414E0,1.982177E1,2.844101E1,1.0252524E1,5.497943E1,2.3981152E1,7.3954024E0,2.2630112E0,1.5865162E1,3.9566092E0,1.608923E1,1.235178E1,2.8732334E1,2.6247097E1,2.0131319E1,3.8498313E0,3.5482464E0,3.8471558E0,2.6968408E0,1.2597684E0],"tree_param":{"num_deleted":"0","num_feature":"4","num_nodes":"29","size_leaf_vector":"1"}},{"base_weights":[4.8140392E-1,2.0688217E-2,6.756032E-1,-3.4053499E-1,4.8048955E-1,4.1277736E-1,7.66006E-1,-4.5374578E-1,2.1079385E-3,5.5395938E-3,-1.74362E-1,2.3344213E-1,6.124092E-1,7.7765724E-3,-7.781645E-4,2.3218928E-2,-6.494856E-1,-2.054282E-3,-0E0,3.0226132E-1,-1.215428E-1,-0E0,6.3453326E-3,-1.2140501E-3,1.3532476E-3,-7.7155884E-3,-1.249927E-3,3.8413964E-3,1.1223245E-3,-0E0,-1.6581918E-3],"categories":[],"categories_nodes":[],"categories_segments":[],"categories_sizes":[],"default_left":[0,0,0,0,0,0,0,0,0,0,0,0,0,0,0,0,0,0,0,0,0,0,0,0,0,0,0,0,0,0,0],"id":50,"left_children":[1,3,5,7,9,11,13,15,-1,-1,17,19,21,-1,-1,23,25,-1,-1,27,29,-1,-1,-1,-1,-1,-1,-1,-1,-1,-1],"loss_changes":[3.812738E1,2.4802673E1,3.4370728E0,6.2660637E0,4.328088E0,1.7465572E0,3.039444E0,7.2685547E0,0E0,0E0,1.15425885E-1,2.178491E0,2.262001E-1,0E0,0E0,6.5958005E-1,1.965744E0,0E0,0E0,3.0164337E-1,9.874931E-2,0E0,0E0,0E0,0E0,0E0,0E0,0E0,0E0,0E0,0E0],"parents":[2147483647,0,0,1,1,2,2,3,3,4,4,5,5,6,6,7,7,10,10,11,11,12,12,15,15,16,16,19,19,20,20],"right_children":[2,4,6,8,10,12,14,16,-1,-1,18,20,22,-1,-1,24,26,-1,-1,28,30,-1,-1,-1,-1,-1,-1,-1,-1,-1,-1],"split_conditions":[5E1,1E0,5.7E1,4.8E1,4.9E1,1E0,8.7E1,3.2E1,2.1079385E-3,5.5395938E-3,1E0,5.6E1,5.1E1,7.7765724E-3,-7.781645E-4,2.6E1,1E0,-2.054282E-3,-0E0,5.3E1,1E0,-0E0,6.3453326E-3,-1.2140501E-3,1.3532476E-3,-7.7155884E-3,-1.249927E-3,3.8413964E-3,1.1223245E-3,-0E0,-1.6581918E-3],"split_indices":[1,0,1,1,1,2,1,1,0,0,2,1,1,0,0,1,2,0,0,1,0,0,0,0,0,0,0,0,0,0,0],"split_type":[0,0,0,0,0,0,0,0,0,0,0,0,0,0,0,0,0,0,0,0,0,0,0,0,0,0,0,0,0,0,0],"sum_hessian":[4.2159723E2,1.2905913E2,2.925381E2,7.312111E1,5.5938023E1,9.053078E1,2.0200732E2,6.2885048E1,1.0236062E1,5.2367027E1,3.570996E0,6.0436825E1,3.0093954E1,2.0061395E2,1.3933622E0,2.0119257E1,4.2765793E1,2.5119295E0,1.0590665E0,5.3046673E1,7.3901515E0,2.1853452E0,2.7908607E1,6.475658E0,1.36435995E1,3.0096987E1,1.2668806E1,2.8095215E1,2.4951458E1,4.4556184E0,2.9345336E0],"tree_param":{"num_deleted":"0","num_feature":"4","num_nodes":"31","size_leaf_vector":"1"}},{"base_weights":[4.5548633E-1,5.379245E-1,1.0455062E-1,4.33965E-3,6.8261456E-3,2.1029809E-3,-9.8299995E-2,-2.5042256E-3,2.2285664E-3],"categories":[],"categories_nodes":[],"categories_segments":[],"categories_sizes":[],"default_left":[0,0,0,0,0,0,0,0,0],"id":51,"left_children":[1,3,5,-1,-1,-1,7,-1,-1],"loss_changes":[1.1224236E1,1.523529E0,2.2614794E0,0E0,0E0,0E0,2.3855553E0,0E0,0E0],"parents":[2147483647,0,0,1,1,2,2,6,6],"right_children":[2,4,6,-1,-1,-1,8,-1,-1],"split_conditions":[1E0,1E0,1E0,4.33965E-3,6.8261456E-3,2.1029809E-3,1E0,-2.5042256E-3,2.2285664E-3],"split_indices":[3,2,0,0,0,0,2,0,0],"split_type":[0,0,0,0,0,0,0,0,0],"sum_hessian":[4.0851596E2,3.253379E2,8.317808E1,2.1459799E2,1.1073991E2,5.6054302E1,2.7123777E1,2.0956598E1,6.1671805E0],"tree_param":{"num_deleted":"0","num_feature":"4","num_nodes":"9","size_leaf_vector":"1"}},{"base_weights":[5.3233993E-1,1.16883375E-1,7.2464967E-1,-1.5554605E-1,4.774069E-1,8.14048E-3,4.3267703E-1,1.6652219E-1,-2.756631E-1,5.255737E-1,-0E0,4.6903396E-1,-1.2196824E-3,-1.9153545E-3,2.4578976E-3,-4.6782428E-1,1.7111517E-1,1.1104739E-1,5.702234E-3,-8.510624E-2,1.112744E-3,4.79494E-3,8.991466E-3,2.2264726E-4,-4.9950124E-4,-5.76957E-3,-7.022796E-4,2.420016E-3,-2.5531254E-4,2.6463945E-3,-1.5157445E-3,-2.0550324E-3,6.910818E-4,-3.014104E-4,8.647635E-4],"categories":[],"categories_nodes":[],"categories_segments":[],"categories_sizes":[],"default_left":[0,0,0,0,0,0,0,0,0,0,0,0,0,0,0,0,0,0,0,0,0,0,0,0,0,0,0,0,0,0,0,0,0,0,0],"id":52,"left_children":[1,3,5,7,9,-1,11,13,15,17,19,21,-1,23,-1,25,27,29,-1,31,-1,-1,33,-1,-1,-1,-1,-1,-1,-1,-1,-1,-1,-1,-1],"loss_changes":[3.2247612E1,1.5192132E1,3.2675323E0,3.9804988E0,1.4886494E0,0E0,2.5449677E0,5.198122E-1,6.9731426E0,1.317234E-1,2.4874261E-1,1.2961769E-1,0E0,4.508953E-2,0E0,1.5503855E0,5.553493E-1,1.2367896E0,0E0,4.8045924E-1,0E0,0E0,9.419725E-2,0E0,0E0,0E0,0E0,0E0,0E0,0E0,0E0,0E0,0E0,0E0,0E0],"parents":[2147483647,0,0,1,1,2,2,3,3,4,4,6,6,7,7,8,8,9,9,10,10,11,11,13,13,15,15,16,16,17,17,19,19,22,22],"right_children":[2,4,6,8,10,-1,12,14,16,18,20,22,-1,24,-1,26,28,30,-1,32,-1,-1,34,-1,-1,-1,-1,-1,-1,-1,-1,-1,-1,-1,-1],"split_conditions":[5.1E1,1E0,1E0,3.2E1,4.9E1,8.14048E-3,8.2E1,2.7E1,4.8E1,3.1E1,1E0,7.6E1,-1.2196824E-3,2.2E1,2.4578976E-3,1E0,1E0,2.9E1,5.702234E-3,5E1,1.112744E-3,4.79494E-3,7.9E1,2.2264726E-4,-4.9950124E-4,-5.76957E-3,-7.022796E-4,2.420016E-3,-2.5531254E-4,2.6463945E-3,-1.5157445E-3,-2.0550324E-3,6.910818E-4,-3.014104E-4,8.647635E-4],"split_indices":[1,0,0,1,1,0,1,1,1,1,2,1,0,1,0,2,2,1,0,1,0,0,1,0,0,0,0,0,0,0,0,0,0,0,0],"split_type":[0,0,0,0,0,0,0,0,0,0,0,0,0,0,0,0,0,0,0,0,0,0,0,0,0,0,0,0,0,0,0,0,0,0,0],"sum_hessian":[4.0948563E2,1.3547974E2,2.740059E2,7.961635E1,5.586338E1,1.9477483E2,7.923105E1,1.9447119E1,6.016923E1,4.973353E1,6.129855E0,7.665156E1,2.5794914E0,7.3274574E0,1.2119661E1,4.252648E1,1.7642752E1,9.315725E0,4.04178E1,4.555011E0,1.574844E0,7.347136E1,3.1802044E0,1.5187063E0,5.808751E0,2.8841381E1,1.3685099E1,1.3141682E1,4.501069E0,7.030848E0,2.284877E0,2.51104E0,2.043971E0,1.8852785E0,1.2949259E0],"tree_param":{"num_deleted":"0","num_feature":"4","num_nodes":"35","size_leaf_vector":"1"}},{"base_weights":[4.549333E-1,6.553337E-2,6.6570306E-1,-2.2905698E-1,4.9724844E-1,7.769614E-1,3.169335E-1,-3.7304664E-1,1.1717764E-1,5.612672E-3,2.921349E-2,3.6680065E-3,8.233708E-3,4.0079155E-3,-2.7541414E-1,1.0965093E-1,-5.9047693E-1,1.5648825E-3,2.1710683E-4,-1.9037655E-1,2.0546333E-3,-4.093144E-3,6.308054E-4,-2.6409427E-5,1.6722536E-3,-7.5651687E-3,-2.0674545E-4,-2.244305E-3,-0E0],"categories":[],"categories_nodes":[],"categories_segments":[],"categories_sizes":[],"default_left":[0,0,0,0,0,0,0,0,0,0,0,0,0,0,0,0,0,0,0,0,0,0,0,0,0,0,0,0,0],"id":53,"left_children":[1,3,5,7,9,11,13,15,17,-1,19,-1,-1,-1,21,23,25,-1,-1,27,-1,-1,-1,-1,-1,-1,-1,-1,-1],"loss_changes":[3.3348183E1,2.1373604E1,7.3915176E0,5.5555663E0,1.5766926E0,1.0121918E-1,5.2795744E0,8.665956E0,1.1998683E-2,0E0,1.1597657E0,0E0,0E0,0E0,1.131859E0,2.8541562E-1,4.504795E0,0E0,0E0,1.2613657E-1,0E0,0E0,0E0,0E0,0E0,0E0,0E0,0E0,0E0],"parents":[2147483647,0,0,1,1,2,2,3,3,4,4,5,5,6,6,7,7,8,8,10,10,14,14,15,15,16,16,19,19],"right_children":[2,4,6,8,10,12,14,16,18,-1,20,-1,-1,-1,22,24,26,-1,-1,28,-1,-1,-1,-1,-1,-1,-1,-1,-1],"split_conditions":[5.2E1,1E0,1E0,4.8E1,4.9E1,5.5E1,7.6E1,3.2E1,5E1,5.612672E-3,5E1,3.6680065E-3,8.233708E-3,4.0079155E-3,1E0,2.7E1,1E0,1.5648825E-3,2.1710683E-4,1E0,2.0546333E-3,-4.093144E-3,6.308054E-4,-2.6409427E-5,1.6722536E-3,-7.5651687E-3,-2.0674545E-4,-2.244305E-3,-0E0],"split_indices":[1,0,0,1,1,1,1,1,1,0,1,0,0,0,2,1,2,0,0,2,0,0,0,0,0,0,0,0,0],"split_type":[0,0,0,0,0,0,0,0,0,0,0,0,0,0,0,0,0,0,0,0,0,0,0,0,0,0,0,0,0],"sum_hessian":[4.060899E2,1.4804898E2,2.5804092E2,9.010198E1,5.7947E1,1.8523857E2,7.280236E1,6.4110054E1,2.5991924E1,4.8282528E1,9.66447E0,2.8974554E1,1.56264E2,6.734618E1,5.4561825E0,2.0735159E1,4.3374893E1,1.0173482E1,1.5818443E1,2.6831412E0,6.9813285E0,3.4689007E0,1.9872818E0,7.3184013E0,1.3416758E1,3.0370602E1,1.30042925E1,1.630446E0,1.0526953E0],"tree_param":{"num_deleted":"0","num_feature":"4","num_nodes":"29","size_leaf_vector":"1"}},{"base_weights":[4.655971E-1,4.9237046E-2,6.538402E-1,-2.395499E-1,4.3231243E-1,7.527064E-1,3.5773245E-1,-3.6333627E-1,1.3430588E-1,4.769056E-3,-0E0,4.0282485E-1,8.46905E-3,4.277205E-1,-2.4639088E-1,2.5065413E-2,-5.131903E-1,1.5668122E-3,-0E0,-5.502169E-2,6.7940715E-4,1.9798204E-1,5.2913115E-3,4.307861E-3,-0E0,-3.1294492E-3,6.1767154E-5,8.1482664E-4,-3.5101228E-4,-6.7494437E-3,-0E0,7.96225E-4,-8.5059396E-4,-1.3608203E-3,3.5350546E-4,3.5336737E-3,-0E0],"categories":[],"categories_nodes":[],"categories_segments":[],"categories_sizes":[],"default_left":[0,0,0,0,0,0,0,0,0,0,0,0,0,0,0,0,0,0,0,0,0,0,0,0,0,0,0,0,0,0,0,0,0,0,0,0,0],"id":54,"left_children":[1,3,5,7,9,11,13,15,17,-1,19,21,-1,23,25,27,29,-1,31,33,-1,35,-1,-1,-1,-1,-1,-1,-1,-1,-1,-1,-1,-1,-1,-1,-1],"loss_changes":[3.1675308E1,1.663593E1,5.0248795E0,4.5637884E0,1.224266E0,2.6056747E0,4.9945793E0,4.3310537E0,7.046431E-2,0E0,9.820232E-2,2.1744537E-1,0E0,3.2562256E-2,4.258142E-1,1.4527331E-1,3.940484E0,0E0,1.6513693E-1,2.016993E-1,0E0,1.3801711E0,0E0,0E0,0E0,0E0,0E0,0E0,0E0,0E0,0E0,0E0,0E0,0E0,0E0,0E0,0E0],"parents":[2147483647,0,0,1,1,2,2,3,3,4,4,5,5,6,6,7,7,8,8,10,10,11,11,13,13,14,14,15,15,16,16,18,18,19,19,21,21],"right_children":[2,4,6,8,10,12,14,16,18,-1,20,22,-1,24,26,28,30,-1,32,34,-1,36,-1,-1,-1,-1,-1,-1,-1,-1,-1,-1,-1,-1,-1,-1,-1],"split_conditions":[5.1E1,1E0,1E0,4.8E1,4.9E1,5.7E1,7.7E1,3.2E1,1E0,4.769056E-3,5E1,1E0,8.46905E-3,7.6E1,1E0,1E0,1E0,1.5668122E-3,5E1,1E0,6.7940715E-4,5.3E1,5.2913115E-3,4.307861E-3,-0E0,-3.1294492E-3,6.1767154E-5,8.1482664E-4,-3.5101228E-4,-6.7494437E-3,-0E0,7.96225E-4,-8.5059396E-4,-1.3608203E-3,3.5350546E-4,3.5336737E-3,-0E0],"split_indices":[1,0,0,1,1,1,1,1,2,0,1,2,0,1,2,2,2,0,1,2,0,1,0,0,0,0,0,0,0,0,0,0,0,0,0,0,0],"split_type":[0,0,0,0,0,0,0,0,0,0,0,0,0,0,0,0,0,0,0,0,0,0,0,0,0,0,0,0,0,0,0,0,0,0,0,0,0],"sum_hessian":[4.027336E2,1.301459E2,2.725877E2,7.559725E1,5.4548653E1,1.9152995E2,8.105775E1,5.800888E1,1.7588367E1,4.842457E1,6.124086E0,5.294559E1,1.3858437E2,7.6000656E1,5.057093E0,1.753953E1,4.0469353E1,1.3141678E1,4.4466896E0,4.0913734E0,2.0327125E0,3.1497131E1,2.144846E1,7.495645E1,1.0442042E0,3.6772337E0,1.3798593E0,1.15121765E1,6.0273523E0,2.7827486E1,1.2641867E1,3.109116E0,1.3375733E0,2.4070609E0,1.6843125E0,1.4079165E1,1.7417967E1],"tree_param":{"num_deleted":"0","num_feature":"4","num_nodes":"37","size_leaf_vector":"1"}},{"base_weights":[4.580718E-1,7.5833485E-2,6.521834E-1,2.0660383E-1,-3.8854626E-1,6.60233E-1,-5.061785E-4,1.0583712E-1,3.54894E-1,1.235578E-1,-6.3241714E-1,7.1175593E-1,3.752733E-1,2.3342334E-3,3.4072727E-2,3.6273208E-2,4.4157743E-1,-9.366046E-4,2.3226098E-3,-7.403443E-3,-0E0,2.9249483E-1,7.473148E-3,4.0063844E-3,-3.1347605E-4,-2.6492968E-3,1.3462622E-3,1.269125E-3,-1.7443001E-4,4.746262E-3,3.590888E-4,7.723331E-4,3.8484337E-3],"categories":[],"categories_nodes":[],"categories_segments":[],"categories_sizes":[],"default_left":[0,0,0,0,0,0,0,0,0,0,0,0,0,0,0,0,0,0,0,0,0,0,0,0,0,0,0,0,0,0,0,0,0],"id":55,"left_children":[1,3,5,7,9,11,-1,13,15,17,19,21,23,-1,25,27,29,-1,-1,-1,-1,31,-1,-1,-1,-1,-1,-1,-1,-1,-1,-1,-1],"loss_changes":[2.9787819E1,9.899392E0,2.176361E0,1.2681231E0,5.516102E0,7.5084686E-1,0E0,6.193085E-1,8.2958126E-1,7.4201155E-1,1.9561605E0,5.1581573E-1,9.702797E-1,0E0,2.4687197E0,1.8224779E-1,1.4626503E-2,0E0,0E0,0E0,0E0,1.560688E-1,0E0,0E0,0E0,0E0,0E0,0E0,0E0,0E0,0E0,0E0,0E0],"parents":[2147483647,0,0,1,1,2,2,3,3,4,4,5,5,7,7,8,8,9,9,10,10,11,11,12,12,14,14,15,15,16,16,21,21],"right_children":[2,4,6,8,10,12,-1,14,16,18,20,22,24,-1,26,28,30,-1,-1,-1,-1,32,-1,-1,-1,-1,-1,-1,-1,-1,-1,-1,-1],"split_conditions":[5.2E1,1E0,8.7E1,1E0,3.6E1,1E0,-5.061785E-4,3.2E1,3.6E1,2.6E1,5.1E1,5.5E1,7.7E1,2.3342334E-3,3.6E1,2.5E1,5E1,-9.366046E-4,2.3226098E-3,-7.403443E-3,-0E0,1E0,7.473148E-3,4.0063844E-3,-3.1347605E-4,-2.6492968E-3,1.3462622E-3,1.269125E-3,-1.7443001E-4,4.746262E-3,3.590888E-4,7.723331E-4,3.8484337E-3],"split_indices":[1,3,1,2,1,3,0,1,1,1,1,1,1,0,1,1,1,0,0,0,0,2,0,0,0,0,0,0,0,0,0,0,0],"split_type":[0,0,0,0,0,0,0,0,0,0,0,0,0,0,0,0,0,0,0,0,0,0,0,0,0,0,0,0,0,0,0,0,0],"sum_hessian":[4.0304144E2,1.4129344E2,2.61748E2,1.1541891E2,2.5874537E1,2.6008618E2,1.6618049E0,8.0932365E1,3.448654E1,9.276996E0,1.6597542E1,2.0609126E2,5.3994923E1,1.8517488E1,6.241488E1,1.1643052E1,2.2843489E1,2.0215492E0,7.255447E0,1.2976942E1,3.620599E0,2.4424856E1,1.8166641E2,5.2120407E1,1.8745153E0,1.0342163E1,5.2072716E1,2.7256157E0,8.917437E0,1.8411192E1,4.4322968E0,1.4470979E1,9.953878E0],"tree_param":{"num_deleted":"0","num_feature":"4","num_nodes":"33","size_leaf_vector":"1"}},{"base_weights":[4.745892E-1,5.653985E-1,8.790274E-2,4.7042114E-3,7.0067053E-3,2.0760747E-3,-1.3278557E-1,-3.023809E-3,2.340098E-3],"categories":[],"categories_nodes":[],"categories_segments":[],"categories_sizes":[],"default_left":[0,0,0,0,0,0,0,0,0],"id":56,"left_children":[1,3,5,-1,-1,-1,7,-1,-1],"loss_changes":[1.3769951E1,4.052887E-1,2.7415245E0,0E0,0E0,0E0,3.040783E0,0E0,0E0],"parents":[2147483647,0,0,1,1,2,2,6,6],"right_children":[2,4,6,-1,-1,-1,8,-1,-1],"split_conditions":[1E0,1E0,1E0,4.7042114E-3,7.0067053E-3,2.0760747E-3,1E0,-3.023809E-3,2.340098E-3],"split_indices":[3,2,0,0,0,0,2,0,0],"split_type":[0,0,0,0,0,0,0,0,0],"sum_hessian":[4.0559756E2,3.236719E2,8.1925674E1,2.1863547E2,1.0503643E2,5.496836E1,2.6957317E1,2.0567028E1,6.390288E0],"tree_param":{"num_deleted":"0","num_feature":"4","num_nodes":"9","size_leaf_vector":"1"}},{"base_weights":[4.599461E-1,1.1133061E-1,6.546601E-1,-1.6247617E-1,5.050418E-1,7.535858E-1,3.4782186E-1,-2.9772422E-1,1.3893177E-1,6.4838004E-1,-1.1609021E-1,3.3594328E-3,8.0343345E-3,4.43319E-1,-6.4918675E-2,8.492236E-3,-4.368969E-3,1.840957E-1,-1.4444984E-3,1.2885232E-1,6.917698E-3,2.1034174E-1,-3.7213303E-3,4.890754E-3,-4.9816E-2,6.3014805E-2,-2.651948E-3,-1.251602E-3,1.0915049E-3,2.4742074E-3,-0E0,-7.3104113E-4,4.633393E-4,2.559264E-3,-1.0419482E-3,-0E0,2.2954086E-3,-1.041444E-3,1.0830064E-4,-2.9114916E-4,1.5290044E-3],"categories":[],"categories_nodes":[],"categories_segments":[],"categories_sizes":[],"default_left":[0,0,0,0,0,0,0,0,0,0,0,0,0,0,0,0,0,0,0,0,0,0,0,0,0,0,0,0,0,0,0,0,0,0,0,0,0,0,0,0,0],"id":57,"left_children":[1,3,5,7,9,11,13,15,17,19,21,-1,-1,23,25,27,-1,29,31,33,-1,35,-1,-1,37,39,-1,-1,-1,-1,-1,-1,-1,-1,-1,-1,-1,-1,-1,-1,-1],"loss_changes":[2.7504509E1,1.8676392E1,4.9485855E0,4.7152405E0,7.2932453E0,7.3870087E-1,3.8283634E0,3.4825583E0,3.333435E-1,3.806305E-2,2.6222794E0,0E0,0E0,2.072339E0,8.758344E-1,5.6420696E-1,0E0,4.4109702E-1,1.0346656E-1,8.6842614E-1,0E0,2.9634297E-2,0E0,0E0,1.04731105E-1,2.8054422E-1,0E0,0E0,0E0,0E0,0E0,0E0,0E0,0E0,0E0,0E0,0E0,0E0,0E0,0E0,0E0],"parents":[2147483647,0,0,1,1,2,2,3,3,4,4,5,5,6,6,7,7,8,8,9,9,10,10,13,13,14,14,15,15,17,17,18,18,19,19,21,21,24,24,25,25],"right_children":[2,4,6,8,10,12,14,16,18,20,22,-1,-1,24,26,28,-1,30,32,34,-1,36,-1,-1,38,40,-1,-1,-1,-1,-1,-1,-1,-1,-1,-1,-1,-1,-1,-1,-1],"split_conditions":[5.2E1,1E0,1E0,4.8E1,1E0,5.5E1,1E0,3.3E1,1E0,3.1E1,3.6E1,3.3594328E-3,8.0343345E-3,7.8E1,6.2E1,2.6E1,-4.368969E-3,5.1E1,5.1E1,2.9E1,6.917698E-3,3.2E1,-3.7213303E-3,4.890754E-3,8.4E1,5.7E1,-2.651948E-3,-1.251602E-3,1.0915049E-3,2.4742074E-3,-0E0,-7.3104113E-4,4.633393E-4,2.559264E-3,-1.0419482E-3,-0E0,2.2954086E-3,-1.041444E-3,1.0830064E-4,-2.9114916E-4,1.5290044E-3],"split_indices":[1,0,0,1,3,1,3,1,3,1,1,0,0,1,1,1,0,1,1,1,0,1,0,0,1,1,0,0,0,0,0,0,0,0,0,0,0,0,0,0,0],"split_type":[0,0,0,0,0,0,0,0,0,0,0,0,0,0,0,0,0,0,0,0,0,0,0,0,0,0,0,0,0,0,0,0,0,0,0,0,0,0,0,0,0],"sum_hessian":[4.1157062E2,1.5404832E2,2.5752228E2,9.357486E1,6.0473473E1,1.8249576E2,7.502652E1,6.582079E1,2.7754066E1,4.9432304E1,1.104117E1,2.878112E1,1.5371465E2,6.131128E1,1.3715241E1,2.237877E1,4.344202E1,2.1336714E1,6.417353E0,7.758288E0,4.1674015E1,4.7796464E0,6.2615237E0,5.71086E1,4.202677E0,1.1027858E1,2.687384E0,6.434143E0,1.5944628E1,1.4554226E1,6.782488E0,4.6329813E0,1.784372E0,5.7737627E0,1.9845252E0,1.806546E0,2.9731004E0,2.7822905E0,1.4203862E0,6.0376954E0,4.9901624E0],"tree_param":{"num_deleted":"0","num_feature":"4","num_nodes":"41","size_leaf_vector":"1"}},{"base_weights":[4.7542965E-1,8.646177E-2,6.1373264E-1,-3.241797E-1,5.94504E-3,7.4401563E-1,2.5974703E-1,3.4673017E-2,-4.9774992E-1,4.354104E-3,8.676956E-3,3.0459105E-3,-2.2596659E-3,-1.0278301E-1,1.3839154E-1,-6.0391986E-1,-5.0679952E-2,9.407203E-4,-2.7241528E-3,1.8568627E-3,-0E0,-6.549644E-3,-0E0,-3.3202341E-3,1.0980355E-3],"categories":[],"categories_nodes":[],"categories_segments":[],"categories_sizes":[],"default_left":[0,0,0,0,0,0,0,0,0,0,0,0,0,0,0,0,0,0,0,0,0,0,0,0,0],"id":58,"left_children":[1,3,5,7,-1,9,11,13,15,-1,-1,-1,-1,17,19,21,23,-1,-1,-1,-1,-1,-1,-1,-1],"loss_changes":[2.1454971E1,2.7408932E1,1.1571838E1,4.9581513E0,0E0,3.7995453E0,2.8643718E0,6.197569E-1,1.7811785E0,0E0,0E0,0E0,0E0,9.308914E-1,1.7130542E-1,1.3555021E0,1.4501314E0,0E0,0E0,0E0,0E0,0E0,0E0,0E0,0E0],"parents":[2147483647,0,0,1,1,2,2,3,3,5,5,6,6,7,7,8,8,13,13,14,14,15,15,16,16],"right_children":[2,4,6,8,-1,10,12,14,16,-1,-1,-1,-1,18,20,22,24,-1,-1,-1,-1,-1,-1,-1,-1],"split_conditions":[4.8E1,1E0,1E0,3.3E1,5.94504E-3,5.7E1,7.9E1,2.7E1,1E0,4.354104E-3,8.676956E-3,3.0459105E-3,-2.2596659E-3,2.4E1,3.1E1,4.7E1,3.7E1,9.407203E-4,-2.7241528E-3,1.8568627E-3,-0E0,-6.549644E-3,-0E0,-3.3202341E-3,1.0980355E-3],"split_indices":[1,0,0,1,0,1,1,1,2,0,0,0,0,1,1,1,1,0,0,0,0,0,0,0,0],"split_type":[0,0,0,0,0,0,0,0,0,0,0,0,0,0,0,0,0,0,0,0,0,0,0,0,0],"sum_hessian":[4.0519724E2,1.11494194E2,2.9370303E2,6.3114635E1,4.8379562E1,2.0560149E2,8.8101555E1,2.2245085E1,4.086955E1,7.2914116E1,1.3268738E2,8.5011215E1,3.0903401E0,7.532231E0,1.4712853E1,2.9287563E1,1.1581985E1,4.183806E0,3.348425E0,8.695553E0,6.0173006E0,2.6562292E1,2.7252712E0,1.4560412E0,1.0125944E1],"tree_param":{"num_deleted":"0","num_feature":"4","num_nodes":"25","size_leaf_vector":"1"}},{"base_weights":[4.5098332E-1,4.0856495E-2,6.298106E-1,-2.6058355E-1,4.5459566E-1,7.405866E-1,3.0163416E-1,1.0610516E-1,-4.059333E-1,5.178028E-3,-1.2055203E-1,3.158647E-3,8.346738E-3,3.5921595E-1,-1.8984269E-1,-7.714022E-2,2.2557024E-3,-5.033452E-1,-2.857219E-2,-1.7764531E-3,2.1505937E-5,2.226196E-1,5.0969285E-1,-2.498138E-3,4.7953858E-5,9.4686553E-4,-2.3526165E-3,-6.3525913E-3,-0E0,-1.8188221E-3,4.3532308E-4,5.3840445E-4,3.9561074E-3,5.37643E-3,-0E0],"categories":[],"categories_nodes":[],"categories_segments":[],"categories_sizes":[],"default_left":[0,0,0,0,0,0,0,0,0,0,0,0,0,0,0,0,0,0,0,0,0,0,0,0,0,0,0,0,0,0,0,0,0,0,0],"id":59,"left_children":[1,3,5,7,9,11,13,15,17,-1,19,-1,-1,21,23,25,-1,27,29,-1,-1,31,33,-1,-1,-1,-1,-1,-1,-1,-1,-1,-1,-1,-1],"loss_changes":[2.9109825E1,1.8057484E1,7.4414673E0,5.0296025E0,3.0417738E0,4.8477325E0,3.27948E0,9.1911495E-1,1.8997078E0,0E0,1.8524483E-1,0E0,0E0,2.2265148E-1,3.089224E-1,7.792362E-1,0E0,2.901535E0,4.1968673E-1,0E0,0E0,1.4147921E0,3.23308E-1,0E0,0E0,0E0,0E0,0E0,0E0,0E0,0E0,0E0,0E0,0E0,0E0],"parents":[2147483647,0,0,1,1,2,2,3,3,4,4,5,5,6,6,7,7,8,8,10,10,13,13,14,14,15,15,17,17,18,18,21,21,22,22],"right_children":[2,4,6,8,10,12,14,16,18,-1,20,-1,-1,22,24,26,-1,28,30,-1,-1,32,34,-1,-1,-1,-1,-1,-1,-1,-1,-1,-1,-1,-1],"split_conditions":[5E1,1E0,1E0,3.2E1,4.9E1,5.5E1,7.7E1,2.7E1,1E0,5.178028E-3,1E0,3.158647E-3,8.346738E-3,1E0,1E0,2.4E1,2.2557024E-3,4.6E1,3.6E1,-1.7764531E-3,2.1505937E-5,6.4E1,6.9E1,-2.498138E-3,4.7953858E-5,9.4686553E-4,-2.3526165E-3,-6.3525913E-3,-0E0,-1.8188221E-3,4.3532308E-4,5.3840445E-4,3.9561074E-3,5.37643E-3,-0E0],"split_indices":[1,0,0,1,1,1,1,1,2,0,2,0,0,2,2,1,0,1,1,0,0,1,1,0,0,0,0,0,0,0,0,0,0,0,0],"split_type":[0,0,0,0,0,0,0,0,0,0,0,0,0,0,0,0,0,0,0,0,0,0,0,0,0,0,0,0,0,0,0,0,0,0,0],"sum_hessian":[3.949867E2,1.2451095E2,2.7047574E2,7.347335E1,5.1037598E1,1.9168288E2,7.879286E1,2.0646456E1,5.2826893E1,4.766566E1,3.3719363E0,4.3627686E1,1.4805519E2,7.384908E1,4.943779E0,7.894604E0,1.2751852E1,3.82814E1,1.4545493E1,2.02629E0,1.3456464E0,5.3448196E1,2.040089E1,3.5760317E0,1.3677475E0,4.1905212E0,3.704083E0,2.7501617E1,1.0779782E1,2.0008397E0,1.2544654E1,3.515338E1,1.8294815E1,1.8440662E1,1.9602286E0],"tree_param":{"num_deleted":"0","num_feature":"4","num_nodes":"35","size_leaf_vector":"1"}},{"base_weights":[4.2970356E-1,-1.6366651E-2,6.4352816E-1,-3.2576236E-1,4.0724528E-1,7.4016434E-1,3.5148785E-1,-4.5790243E-1,1.01847745E-1,4.7522008E-1,-7.1179815E-2,3.0096818E-3,8.202886E-3,4.135917E-3,-1.9967683E-1,-6.660102E-1,4.406415E-2,1.2183486E-1,-0E0,9.15938E-2,5.1781326E-3,-1.478499E-1,3.7678547E-4,-3.2538834E-3,6.078777E-4,-1.4274371E-3,-8.429276E-3,-6.358227E-4,1.40857E-3,-0E0,1.4190587E-3,9.1681397E-4,-9.546871E-4,2.362579E-3,-1.3329291E-3,-2.0567668E-3,2.148071E-5],"categories":[],"categories_nodes":[],"categories_segments":[],"categories_sizes":[],"default_left":[0,0,0,0,0,0,0,0,0,0,0,0,0,0,0,0,0,0,0,0,0,0,0,0,0,0,0,0,0,0,0,0,0,0,0,0,0],"id":60,"left_children":[1,3,5,7,9,11,13,15,17,19,21,-1,-1,-1,23,25,27,29,31,33,-1,35,-1,-1,-1,-1,-1,-1,-1,-1,-1,-1,-1,-1,-1,-1,-1],"loss_changes":[3.8732643E1,1.952395E1,4.5440903E0,5.5408554E0,2.5727596E0,3.81324E0,3.9480982E0,7.8032284E0,5.9165537E-2,1.5141106E-1,2.4063683E-1,0E0,0E0,0E0,8.16317E-1,2.9364052E0,4.290264E-1,5.3227603E-2,2.1338996E-1,9.849252E-1,0E0,2.2635093E-1,0E0,0E0,0E0,0E0,0E0,0E0,0E0,0E0,0E0,0E0,0E0,0E0,0E0,0E0,0E0],"parents":[2147483647,0,0,1,1,2,2,3,3,4,4,5,5,6,6,7,7,8,8,9,9,10,10,14,14,15,15,16,16,17,17,18,18,19,19,21,21],"right_children":[2,4,6,8,10,12,14,16,18,20,22,-1,-1,-1,24,26,28,30,32,34,-1,36,-1,-1,-1,-1,-1,-1,-1,-1,-1,-1,-1,-1,-1,-1,-1],"split_conditions":[5.1E1,1E0,1E0,4.8E1,4.9E1,5.5E1,7.7E1,1E0,1E0,3.1E1,5E1,3.0096818E-3,8.202886E-3,4.135917E-3,1E0,3.5E1,3.6E1,4.9E1,5E1,2.9E1,5.1781326E-3,1E0,3.7678547E-4,-3.2538834E-3,6.078777E-4,-1.4274371E-3,-8.429276E-3,-6.358227E-4,1.40857E-3,-0E0,1.4190587E-3,9.1681397E-4,-9.546871E-4,2.362579E-3,-1.3329291E-3,-2.0567668E-3,2.148071E-5],"split_indices":[1,0,0,1,1,1,1,2,2,1,1,0,0,0,2,1,1,1,1,1,0,2,0,0,0,0,0,0,0,0,0,0,0,0,0,0,0],"split_type":[0,0,0,0,0,0,0,0,0,0,0,0,0,0,0,0,0,0,0,0,0,0,0,0,0,0,0,0,0,0,0,0,0,0,0,0,0],"sum_hessian":[3.916925E2,1.2915402E2,2.625385E2,7.6656334E1,5.2497684E1,1.8444792E2,7.809057E1,5.8912174E1,1.7744158E1,4.6940456E1,